{"learner":{"attributes":{"scikit_learn":"{\"_estimator_type\": \"classifier\"}"},"feature_names":["team1","team2","team1Home","team2Home","neutralVenue","friendly","qualifier","finaltourn","team1_win_rate_10","team1_loss_rate_10","team1_draw_rate_10","team1_goal_diff_avg_10","team1_confed_form_10","team1_win_rate_20","team1_loss_rate_20","team1_draw_rate_20","team1_goal_diff_avg_20","team1_confed_form_20","team1_win_rate_30","team1_loss_rate_30","team1_draw_rate_30","team1_goal_diff_avg_30","team1_confed_form_30","team1_win_rate_40","team1_loss_rate_40","team1_draw_rate_40","team1_goal_diff_avg_40","team1_confed_form_40","team1_win_rate_50","team1_loss_rate_50","team1_draw_rate_50","team1_goal_diff_avg_50","team1_confed_form_50","team2_win_rate_10","team2_loss_rate_10","team2_draw_rate_10","team2_goal_diff_avg_10","team2_confed_form_10","team2_win_rate_20","team2_loss_rate_20","team2_draw_rate_20","team2_goal_diff_avg_20","team2_confed_form_20","team2_win_rate_30","team2_loss_rate_30","team2_draw_rate_30","team2_goal_diff_avg_30","team2_confed_form_30","team2_win_rate_40","team2_loss_rate_40","team2_draw_rate_40","team2_goal_diff_avg_40","team2_confed_form_40","team2_win_rate_50","team2_loss_rate_50","team2_draw_rate_50","team2_goal_diff_avg_50","team2_confed_form_50"],"feature_types":["int","int","int","int","int","int","int","int","float","float","float","float","float","float","float","float","float","float","float","float","float","float","float","float","float","float","float","float","float","float","float","float","float","float","float","float","float","float","float","float","float","float","float","float","float","float","float","float","float","float","float","float","float","float","float","float","float","float"],"gradient_booster":{"model":{"gbtree_model_param":{"num_parallel_tree":"1","num_trees":"900"},"iteration_indptr":[0,3,6,9,12,15,18,21,24,27,30,33,36,39,42,45,48,51,54,57,60,63,66,69,72,75,78,81,84,87,90,93,96,99,102,105,108,111,114,117,120,123,126,129,132,135,138,141,144,147,150,153,156,159,162,165,168,171,174,177,180,183,186,189,192,195,198,201,204,207,210,213,216,219,222,225,228,231,234,237,240,243,246,249,252,255,258,261,264,267,270,273,276,279,282,285,288,291,294,297,300,303,306,309,312,315,318,321,324,327,330,333,336,339,342,345,348,351,354,357,360,363,366,369,372,375,378,381,384,387,390,393,396,399,402,405,408,411,414,417,420,423,426,429,432,435,438,441,444,447,450,453,456,459,462,465,468,471,474,477,480,483,486,489,492,495,498,501,504,507,510,513,516,519,522,525,528,531,534,537,540,543,546,549,552,555,558,561,564,567,570,573,576,579,582,585,588,591,594,597,600,603,606,609,612,615,618,621,624,627,630,633,636,639,642,645,648,651,654,657,660,663,666,669,672,675,678,681,684,687,690,693,696,699,702,705,708,711,714,717,720,723,726,729,732,735,738,741,744,747,750,753,756,759,762,765,768,771,774,777,780,783,786,789,792,795,798,801,804,807,810,813,816,819,822,825,828,831,834,837,840,843,846,849,852,855,858,861,864,867,870,873,876,879,882,885,888,891,894,897,900],"tree_info":[0,1,2,0,1,2,0,1,2,0,1,2,0,1,2,0,1,2,0,1,2,0,1,2,0,1,2,0,1,2,0,1,2,0,1,2,0,1,2,0,1,2,0,1,2,0,1,2,0,1,2,0,1,2,0,1,2,0,1,2,0,1,2,0,1,2,0,1,2,0,1,2,0,1,2,0,1,2,0,1,2,0,1,2,0,1,2,0,1,2,0,1,2,0,1,2,0,1,2,0,1,2,0,1,2,0,1,2,0,1,2,0,1,2,0,1,2,0,1,2,0,1,2,0,1,2,0,1,2,0,1,2,0,1,2,0,1,2,0,1,2,0,1,2,0,1,2,0,1,2,0,1,2,0,1,2,0,1,2,0,1,2,0,1,2,0,1,2,0,1,2,0,1,2,0,1,2,0,1,2,0,1,2,0,1,2,0,1,2,0,1,2,0,1,2,0,1,2,0,1,2,0,1,2,0,1,2,0,1,2,0,1,2,0,1,2,0,1,2,0,1,2,0,1,2,0,1,2,0,1,2,0,1,2,0,1,2,0,1,2,0,1,2,0,1,2,0,1,2,0,1,2,0,1,2,0,1,2,0,1,2,0,1,2,0,1,2,0,1,2,0,1,2,0,1,2,0,1,2,0,1,2,0,1,2,0,1,2,0,1,2,0,1,2,0,1,2,0,1,2,0,1,2,0,1,2,0,1,2,0,1,2,0,1,2,0,1,2,0,1,2,0,1,2,0,1,2,0,1,2,0,1,2,0,1,2,0,1,2,0,1,2,0,1,2,0,1,2,0,1,2,0,1,2,0,1,2,0,1,2,0,1,2,0,1,2,0,1,2,0,1,2,0,1,2,0,1,2,0,1,2,0,1,2,0,1,2,0,1,2,0,1,2,0,1,2,0,1,2,0,1,2,0,1,2,0,1,2,0,1,2,0,1,2,0,1,2,0,1,2,0,1,2,0,1,2,0,1,2,0,1,2,0,1,2,0,1,2,0,1,2,0,1,2,0,1,2,0,1,2,0,1,2,0,1,2,0,1,2,0,1,2,0,1,2,0,1,2,0,1,2,0,1,2,0,1,2,0,1,2,0,1,2,0,1,2,0,1,2,0,1,2,0,1,2,0,1,2,0,1,2,0,1,2,0,1,2,0,1,2,0,1,2,0,1,2,0,1,2,0,1,2,0,1,2,0,1,2,0,1,2,0,1,2,0,1,2,0,1,2,0,1,2,0,1,2,0,1,2,0,1,2,0,1,2,0,1,2,0,1,2,0,1,2,0,1,2,0,1,2,0,1,2,0,1,2,0,1,2,0,1,2,0,1,2,0,1,2,0,1,2,0,1,2,0,1,2,0,1,2,0,1,2,0,1,2,0,1,2,0,1,2,0,1,2,0,1,2,0,1,2,0,1,2,0,1,2,0,1,2,0,1,2,0,1,2,0,1,2,0,1,2,0,1,2,0,1,2,0,1,2,0,1,2,0,1,2,0,1,2,0,1,2,0,1,2,0,1,2,0,1,2,0,1,2,0,1,2,0,1,2,0,1,2,0,1,2,0,1,2,0,1,2,0,1,2,0,1,2,0,1,2,0,1,2,0,1,2,0,1,2,0,1,2,0,1,2,0,1,2,0,1,2,0,1,2,0,1,2,0,1,2,0,1,2,0,1,2,0,1,2,0,1,2,0,1,2,0,1,2,0,1,2,0,1,2,0,1,2,0,1,2,0,1,2,0,1,2,0,1,2,0,1,2,0,1,2,0,1,2,0,1,2,0,1,2,0,1,2,0,1,2,0,1,2,0,1,2,0,1,2,0,1,2,0,1,2,0,1,2,0,1,2,0,1,2,0,1,2,0,1,2,0,1,2,0,1,2,0,1,2,0,1,2,0,1,2,0,1,2,0,1,2,0,1,2,0,1,2,0,1,2,0,1,2,0,1,2,0,1,2,0,1,2,0,1,2,0,1,2,0,1,2,0,1,2,0,1,2,0,1,2,0,1,2,0,1,2,0,1,2,0,1,2,0,1,2,0,1,2],"trees":[{"base_weights":[-2.768939E-1,-4.7478414E-1,8.814508E-2,-5.8239955E-1,-2.1521541E-1,-2.0593451E-1,4.8042703E-1,-3.2851245E-2,-2.2621095E-2,-2.3429086E-2,2.7638956E-3,-2.1247895E-2,1.7695079E-3,1.8030688E-2,4.119548E-2],"categories":[],"categories_nodes":[],"categories_segments":[],"categories_sizes":[],"default_left":[0,0,0,0,0,0,0,0,0,0,0,0,0,0,0],"id":0,"left_children":[1,3,5,7,9,11,13,-1,-1,-1,-1,-1,-1,-1,-1],"loss_changes":[2.667827E2,6.55824E1,1.5149847E2,1.3376648E1,4.9405437E1,3.9933144E1,2.0157272E1,0E0,0E0,0E0,0E0,0E0,0E0,0E0,0E0],"parents":[2147483647,0,0,1,1,2,2,3,3,4,4,5,5,6,6],"right_children":[2,4,6,8,10,12,14,-1,-1,-1,-1,-1,-1,-1,-1],"split_conditions":[2.857143E-1,2.857143E-1,3E-1,1.6666667E-1,1.1111111E-1,2E-1,4.2857143E-1,-3.2851245E-2,-2.2621095E-2,-2.3429086E-2,2.7638956E-3,-2.1247895E-2,1.7695079E-3,1.8030688E-2,4.119548E-2],"split_indices":[35,10,10,35,35,10,10,0,0,0,0,0,0,0,0],"split_type":[0,0,0,0,0,0,0,0,0,0,0,0,0,0,0],"sum_hessian":[3.677333E3,2.3826665E3,1.2946666E3,1.6755554E3,7.071111E2,7.426666E2,5.5199994E2,1.0386666E3,6.3688885E2,3.613333E2,3.4577777E2,3.853333E2,3.573333E2,4.2444443E2,1.2755555E2],"tree_param":{"num_deleted":"0","num_feature":"58","num_nodes":"15","size_leaf_vector":"1"}},{"base_weights":[4.0459287E-1,-1.3595211E-2,8.769846E-1,-3.893348E-1,4.0546265E-1,-1.9665077E-1,1.0344827E0,-2.8846158E-2,-7.4964995E-3,8.630208E-3,4.1666668E-2,-1.7907998E-2,3.4322035E-2,4.014961E-2,6.65845E-2],"categories":[],"categories_nodes":[],"categories_segments":[],"categories_sizes":[],"default_left":[0,0,0,0,0,0,0,0,0,0,0,0,0,0,0],"id":1,"left_children":[1,3,5,7,9,11,13,-1,-1,-1,-1,-1,-1,-1,-1],"loss_changes":[7.360975E2,3.1428748E2,2.9787634E2,4.638983E1,9.259334E1,3.5579803E1,9.438794E1,0E0,0E0,0E0,0E0,0E0,0E0,0E0,0E0],"parents":[2147483647,0,0,1,1,2,2,3,3,4,4,5,5,6,6],"right_children":[2,4,6,8,10,12,14,-1,-1,-1,-1,-1,-1,-1,-1],"split_conditions":[5.5E-1,5.3333336E-1,2.6666668E-1,3.529412E-1,5E-1,8.888889E-1,7.1428573E-1,-2.8846158E-2,-7.4964995E-3,8.630208E-3,4.1666668E-2,-1.7907998E-2,3.4322035E-2,4.014961E-2,6.65845E-2],"split_indices":[42,17,17,17,33,33,33,0,0,0,0,0,0,0,0],"split_type":[0,0,0,0,0,0,0,0,0,0,0,0,0,0,0],"sum_hessian":[3.7155554E3,1.9759999E3,1.7395554E3,1.0422222E3,9.337777E2,2.2222221E2,1.5173333E3,5.764444E2,4.6577774E2,6.137778E2,3.1999997E2,1.9288887E2,2.9333332E1,8.737777E2,6.4355554E2],"tree_param":{"num_deleted":"0","num_feature":"58","num_nodes":"15","size_leaf_vector":"1"}},{"base_weights":[-1.2626298E-1,-3.3419937E-1,5.6680423E-1,-5.454087E-1,1.3802533E-1,-3.4504798E-1,8.4528995E-1,-3.432712E-2,-1.987223E-2,-2.1163752E-2,1.5605815E-2,-3.415842E-2,2.192065E-3,2.8292684E-2,6.2447168E-2],"categories":[],"categories_nodes":[],"categories_segments":[],"categories_sizes":[],"default_left":[0,0,0,0,0,0,0,0,0,0,0,0,0,0,0],"id":2,"left_children":[1,3,5,7,9,11,13,-1,-1,-1,-1,-1,-1,-1,-1],"loss_changes":[5.375815E2,2.8655838E2,2.2169818E2,3.866095E1,8.863696E1,2.7737385E1,6.770361E1,0E0,0E0,0E0,0E0,0E0,0E0,0E0,0E0],"parents":[2147483647,0,0,1,1,2,2,3,3,4,4,5,5,6,6],"right_children":[2,4,6,8,10,12,14,-1,-1,-1,-1,-1,-1,-1,-1],"split_conditions":[4E-1,3.75E-1,1.25E-1,1.6666667E-1,1.1111111E-1,1E-1,6.111111E-1,-3.432712E-2,-1.987223E-2,-2.1163752E-2,1.5605815E-2,-3.415842E-2,2.192065E-3,2.8292684E-2,6.2447168E-2],"split_indices":[14,34,34,34,14,34,14,0,0,0,0,0,0,0,0],"split_type":[0,0,0,0,0,0,0,0,0,0,0,0,0,0,0],"sum_hessian":[3.7071108E3,2.8555554E3,8.515555E2,1.9719999E3,8.835555E2,1.9866666E2,6.5288885E2,9.906666E2,9.8133325E2,2.0577777E2,6.777777E2,1.0222221E2,9.6444435E1,3.9999997E2,2.5288887E2],"tree_param":{"num_deleted":"0","num_feature":"58","num_nodes":"15","size_leaf_vector":"1"}},{"base_weights":[-2.7675998E-1,-4.5897675E-1,8.2362376E-2,-5.9420943E-1,-2.759995E-1,-3.4387967E-1,2.8181663E-1,-3.6324155E-2,-2.510319E-2,-2.1997081E-2,-2.8333506E-3,-3.0391758E-2,-9.423414E-3,8.444039E-3,3.435869E-2],"categories":[],"categories_nodes":[],"categories_segments":[],"categories_sizes":[],"default_left":[0,0,0,0,0,0,0,0,0,0,0,0,0,0,0],"id":3,"left_children":[1,3,5,7,9,11,13,-1,-1,-1,-1,-1,-1,-1,-1],"loss_changes":[2.4366257E2,5.9426575E1,1.0808028E2,1.3543274E1,3.8134712E1,1.55142975E1,3.8382492E1,0E0,0E0,0E0,0E0,0E0,0E0,0E0,0E0],"parents":[2147483647,0,0,1,1,2,2,3,3,4,4,5,5,6,6],"right_children":[2,4,6,8,10,12,14,-1,-1,-1,-1,-1,-1,-1,-1],"split_conditions":[3E-1,1.6666667E-1,1.6666667E-1,1E-1,2.2222222E-1,6.25E-2,4.4444445E-1,-3.6324155E-2,-2.510319E-2,-2.1997081E-2,-2.8333506E-3,-3.0391758E-2,-9.423414E-3,8.444039E-3,3.435869E-2],"split_indices":[10,10,40,10,40,40,10,0,0,0,0,0,0,0,0],"split_type":[0,0,0,0,0,0,0,0,0,0,0,0,0,0,0],"sum_hessian":[3.7077805E3,2.4578833E3,1.2498973E3,1.4004102E3,1.0574731E3,3.961236E2,8.537737E2,5.467369E2,8.536733E2,5.9939294E2,4.5808014E2,1.360095E2,2.601141E2,6.7881616E2,1.7495753E2],"tree_param":{"num_deleted":"0","num_feature":"58","num_nodes":"15","size_leaf_vector":"1"}},{"base_weights":[3.8712704E-1,2.9708102E-2,8.6339885E-1,-2.5314423E-1,5.968306E-1,-1.2271736E-1,1.0124929E0,-2.815356E-2,-2.8464696E-3,1.9109137E-2,4.4734146E-2,-1.5227528E-2,3.519701E-2,3.9190732E-2,6.2080603E-2],"categories":[],"categories_nodes":[],"categories_segments":[],"categories_sizes":[],"default_left":[0,0,0,0,0,0,0,0,0,0,0,0,0,0,0],"id":4,"left_children":[1,3,5,7,9,11,13,-1,-1,-1,-1,-1,-1,-1,-1],"loss_changes":[6.3708466E2,3.4627634E2,2.3718384E2,8.7313E1,4.2497665E1,3.5165466E1,6.3363647E1,0E0,0E0,0E0,0E0,0E0,0E0,0E0,0E0],"parents":[2147483647,0,0,1,1,2,2,3,3,4,4,5,5,6,6],"right_children":[2,4,6,8,10,12,14,-1,-1,-1,-1,-1,-1,-1,-1],"split_conditions":[5.714286E-1,6.333333E-1,2.7272728E-1,3.529412E-1,7.5E-1,8.75E-1,7.1428573E-1,-2.815356E-2,-2.8464696E-3,1.9109137E-2,4.4734146E-2,-1.5227528E-2,3.519701E-2,3.9190732E-2,6.2080603E-2],"split_indices":[33,22,22,22,22,33,33,0,0,0,0,0,0,0,0],"split_type":[0,0,0,0,0,0,0,0,0,0,0,0,0,0,0],"sum_hessian":[3.7340317E3,2.139251E3,1.5947806E3,1.4310508E3,7.0820026E2,2.0968454E2,1.3850961E3,5.475242E2,8.835267E2,4.2485727E2,2.8334296E2,1.7705504E2,3.2629494E1,7.153413E2,6.6975476E2],"tree_param":{"num_deleted":"0","num_feature":"58","num_nodes":"15","size_leaf_vector":"1"}},{"base_weights":[-1.3218176E-1,-3.3772403E-1,5.428665E-1,-5.307262E-1,8.903664E-2,-3.8149858E-1,8.3316576E-1,-3.3782374E-2,-1.9194394E-2,1.596396E-2,-1.3501078E-2,-3.374917E-2,-2.3170908E-3,2.7887324E-2,5.4915298E-2],"categories":[],"categories_nodes":[],"categories_segments":[],"categories_sizes":[],"default_left":[0,0,0,0,0,0,0,0,0,0,0,0,0,0,0],"id":5,"left_children":[1,3,5,7,9,11,13,-1,-1,-1,-1,-1,-1,-1,-1],"loss_changes":[5.189727E2,2.3631119E2,2.3765457E2,3.939331E1,7.5285E1,2.0903408E1,4.26622E1,0E0,0E0,0E0,0E0,0E0,0E0,0E0,0E0],"parents":[2147483647,0,0,1,1,2,2,3,3,4,4,5,5,6,6],"right_children":[2,4,6,8,10,12,14,-1,-1,-1,-1,-1,-1,-1,-1],"split_conditions":[3.846154E-1,3.75E-1,1.25E-1,1.4285715E-1,6.666667E-1,1E-1,5.555556E-1,-3.3782374E-2,-1.9194394E-2,1.596396E-2,-1.3501078E-2,-3.374917E-2,-2.3170908E-3,2.7887324E-2,5.4915298E-2],"split_indices":[14,34,34,34,12,34,29,0,0,0,0,0,0,0,0],"split_type":[0,0,0,0,0,0,0,0,0,0,0,0,0,0,0],"sum_hessian":[3.7171045E3,2.8533105E3,8.63794E2,1.9630753E3,8.902353E2,2.0569202E2,6.58102E2,9.6986206E2,9.9321326E2,5.4309125E2,3.4714407E2,1.0425781E2,1.014342E2,3.3801672E2,3.2008527E2],"tree_param":{"num_deleted":"0","num_feature":"58","num_nodes":"15","size_leaf_vector":"1"}},{"base_weights":[-2.6047888E-1,-4.5847765E-1,9.2477836E-2,-5.6069934E-1,-2.0509984E-1,-1.7600816E-1,4.3995085E-1,-3.212522E-2,-2.152275E-2,-3.4199182E-2,-3.3047746E-3,-3.3725094E-2,-3.7598112E-3,1.7089171E-2,3.7436146E-2],"categories":[],"categories_nodes":[],"categories_segments":[],"categories_sizes":[],"default_left":[0,0,0,0,0,0,0,0,0,0,0,0,0,0,0],"id":6,"left_children":[1,3,5,7,9,11,13,-1,-1,-1,-1,-1,-1,-1,-1],"loss_changes":[2.5656598E2,5.9708923E1,1.244319E2,1.5011353E1,4.556024E1,3.742846E1,1.5040298E1,0E0,0E0,0E0,0E0,0E0,0E0,0E0,0E0],"parents":[2147483647,0,0,1,1,2,2,3,3,4,4,5,5,6,6],"right_children":[2,4,6,8,10,12,14,-1,-1,-1,-1,-1,-1,-1,-1],"split_conditions":[2.857143E-1,3E-1,3E-1,2E-1,1E-1,1E-1,4.2857143E-1,-3.212522E-2,-2.152275E-2,-3.4199182E-2,-3.3047746E-3,-3.3725094E-2,-3.7598112E-3,1.7089171E-2,3.7436146E-2],"split_indices":[35,10,10,10,35,10,35,0,0,0,0,0,0,0,0],"split_type":[0,0,0,0,0,0,0,0,0,0,0,0,0,0,0],"sum_hessian":[3.655193E3,2.3396987E3,1.3154945E3,1.6584795E3,6.812191E2,7.4487665E2,5.7061786E2,9.9450885E2,6.639707E2,1.4443169E2,5.367875E2,1.1572653E2,6.291501E2,4.4895224E2,1.2166558E2],"tree_param":{"num_deleted":"0","num_feature":"58","num_nodes":"15","size_leaf_vector":"1"}},{"base_weights":[3.6740792E-1,-2.897985E-2,8.6893666E-1,-3.5559082E-1,4.0988097E-1,-9.2338376E-2,9.888857E-1,-2.8774217E-2,-8.093488E-3,2.2839475E-3,3.492353E-2,-1.5765352E-2,3.4420848E-2,3.7873145E-2,5.8815815E-2],"categories":[],"categories_nodes":[],"categories_segments":[],"categories_sizes":[],"default_left":[0,0,0,0,0,0,0,0,0,0,0,0,0,0,0],"id":7,"left_children":[1,3,5,7,9,11,13,-1,-1,-1,-1,-1,-1,-1,-1],"loss_changes":[7.5030176E2,3.049034E2,1.9299512E2,5.0998947E1,9.510899E1,3.5935104E1,5.5369263E1,0E0,0E0,0E0,0E0,0E0,0E0,0E0,0E0],"parents":[2147483647,0,0,1,1,2,2,3,3,4,4,5,5,6,6],"right_children":[2,4,6,8,10,12,14,-1,-1,-1,-1,-1,-1,-1,-1],"split_conditions":[6E-1,5.555556E-1,2.7272728E-1,4E-1,3.75E-1,8.5714287E-1,7.1428573E-1,-2.8774217E-2,-8.093488E-3,2.2839475E-3,3.492353E-2,-1.5765352E-2,3.4420848E-2,3.7873145E-2,5.8815815E-2],"split_indices":[37,8,27,8,37,37,37,0,0,0,0,0,0,0,0],"split_type":[0,0,0,0,0,0,0,0,0,0,0,0,0,0,0],"sum_hessian":[3.7628894E3,2.107014E3,1.6558754E3,1.2090825E3,8.979314E2,1.8395515E2,1.4719202E3,5.570575E2,6.52025E2,4.0208295E2,4.9584848E2,1.4772832E2,3.6226845E1,6.8122125E2,7.906989E2],"tree_param":{"num_deleted":"0","num_feature":"58","num_nodes":"15","size_leaf_vector":"1"}},{"base_weights":[-1.1658291E-1,-3.6607498E-1,4.1391528E-1,-5.198883E-1,3.7561752E-2,-3.8600974E-2,7.6211977E-1,-3.2938626E-2,-1.9931084E-2,-1.9512815E-2,1.0206393E-2,-1.0654094E-2,3.752494E-2,4.810771E-2,2.1939695E-2],"categories":[],"categories_nodes":[],"categories_segments":[],"categories_sizes":[],"default_left":[0,0,0,0,0,0,0,0,0,0,0,0,0,0,0],"id":8,"left_children":[1,3,5,7,9,11,13,-1,-1,-1,-1,-1,-1,-1,-1],"loss_changes":[4.967532E2,1.585232E2,1.896197E2,2.848465E1,5.1603775E1,7.485017E1,3.972696E1,0E0,0E0,0E0,0E0,0E0,0E0,0E0,0E0],"parents":[2147483647,0,0,1,1,2,2,3,3,4,4,5,5,6,6],"right_children":[2,4,6,8,10,12,14,-1,-1,-1,-1,-1,-1,-1,-1],"split_conditions":[3.1578946E-1,1E-1,2.413793E-1,1.6666667E-1,1.1764706E-1,7.3333335E-1,-1E-1,-3.2938626E-2,-1.9931084E-2,-1.9512815E-2,1.0206393E-2,-1.0654094E-2,3.752494E-2,4.810771E-2,2.1939695E-2],"split_indices":[14,36,44,44,14,19,11,0,0,0,0,0,0,0,0],"split_type":[0,0,0,0,0,0,0,0,0,0,0,0,0,0,0],"sum_hessian":[3.7317375E3,2.5401912E3,1.1915466E3,1.8372083E3,7.029828E2,5.220271E2,6.695195E2,8.3573444E2,1.0014739E3,1.9323564E2,5.0974713E2,4.3347864E2,8.854845E1,4.0141504E2,2.6810443E2],"tree_param":{"num_deleted":"0","num_feature":"58","num_nodes":"15","size_leaf_vector":"1"}},{"base_weights":[-2.4835265E-1,-5.1721495E-1,-1.1135258E-1,-3.4718778E-2,-4.363228E-1,-3.0785787E-1,1.1269802E-1,-2.2237694E-2,1.6065784E-2,-2.6970431E-2,-1.1120845E-2,2.8004593E-3,3.8327035E-2],"categories":[],"categories_nodes":[],"categories_segments":[],"categories_sizes":[],"default_left":[0,0,0,0,0,0,0,0,0,0,0,0,0],"id":9,"left_children":[1,3,5,-1,7,9,11,-1,-1,-1,-1,-1,-1],"loss_changes":[1.3357272E2,1.4548767E1,1.0712822E2,0E0,6.9800415E0,2.4416145E1,4.1846508E1,0E0,0E0,0E0,0E0,0E0,0E0],"parents":[2147483647,0,0,1,1,2,2,4,4,5,5,6,6],"right_children":[2,4,6,-1,8,10,12,-1,-1,-1,-1,-1,-1],"split_conditions":[1.6129032E-1,5E-2,2.1052632E-1,-3.4718778E-2,6E-1,1.0714286E-1,5E-1,-2.2237694E-2,1.6065784E-2,-2.6970431E-2,-1.1120845E-2,2.8004593E-3,3.8327035E-2],"split_indices":[50,50,20,0,20,20,20,0,0,0,0,0,0],"split_type":[0,0,0,0,0,0,0,0,0,0,0,0,0],"sum_hessian":[3.6319644E3,1.2166125E3,2.4153518E3,3.575996E2,8.590129E2,1.2847827E3,1.1305691E3,8.5364325E2,5.369647E0,3.3197525E2,9.5280743E2,1.0503585E3,8.021056E1],"tree_param":{"num_deleted":"0","num_feature":"58","num_nodes":"13","size_leaf_vector":"1"}},{"base_weights":[3.6084875E-1,-4.0371563E-2,7.808723E-1,-3.0596274E-1,5.5680555E-1,3.6064056E-1,9.979215E-1,-2.669145E-2,-3.9429977E-3,-1.8392324E-2,3.7576415E-2,8.71482E-3,3.9112385E-2,3.840583E-2,5.5852253E-2],"categories":[],"categories_nodes":[],"categories_segments":[],"categories_sizes":[],"default_left":[0,0,0,0,0,0,0,0,0,0,0,0,0,0,0],"id":10,"left_children":[1,3,5,7,9,11,13,-1,-1,-1,-1,-1,-1,-1,-1],"loss_changes":[6.4431067E2,3.1319943E2,1.6673389E2,7.026021E1,1.1225835E2,4.9836014E1,2.4975464E1,0E0,0E0,0E0,0E0,0E0,0E0,0E0,0E0],"parents":[2147483647,0,0,1,1,2,2,3,3,4,4,5,5,6,6],"right_children":[2,4,6,8,10,12,14,-1,-1,-1,-1,-1,-1,-1,-1],"split_conditions":[5.555556E-1,6.25E-1,4.6666667E-1,3.75E-1,2E-1,7.777778E-1,6.4285713E-1,-2.669145E-2,-3.9429977E-3,-1.8392324E-2,3.7576415E-2,8.71482E-3,3.9112385E-2,3.840583E-2,5.5852253E-2],"split_indices":[12,42,42,12,12,12,42,0,0,0,0,0,0,0,0],"split_type":[0,0,0,0,0,0,0,0,0,0,0,0,0,0,0],"sum_hessian":[3.8114326E3,1.9539725E3,1.8574601E3,1.3558447E3,5.981278E2,6.416906E2,1.2157695E3,6.700431E2,6.8580164E2,1.02501724E2,4.956261E2,4.548068E2,1.8688382E2,4.4048895E2,7.752805E2],"tree_param":{"num_deleted":"0","num_feature":"58","num_nodes":"15","size_leaf_vector":"1"}},{"base_weights":[-1.2425378E-1,-4.8937836E-1,1.9993322E-1,-5.375737E-1,5.945873E-1,-1.3287519E-1,6.8434083E-1,-3.51831E-2,-2.2046426E-2,-1.8045764E-2,3.8674224E-2,-1.5095604E-2,8.875803E-3,2.1781342E-2,4.8625093E-2],"categories":[],"categories_nodes":[],"categories_segments":[],"categories_sizes":[],"default_left":[0,0,0,0,0,0,0,0,0,0,0,0,0,0,0],"id":11,"left_children":[1,3,5,7,9,11,13,-1,-1,-1,-1,-1,-1,-1,-1],"loss_changes":[4.404931E2,9.457773E1,3.1913284E2,2.3863739E1,1.6331535E1,6.236453E1,5.349298E1,0E0,0E0,0E0,0E0,0E0,0E0,0E0,0E0],"parents":[2147483647,0,0,1,1,2,2,3,3,4,4,5,5,6,6],"right_children":[2,4,6,8,10,12,14,-1,-1,-1,-1,-1,-1,-1,-1],"split_conditions":[2.2222222E-1,7.368421E-1,2.9411766E-1,1E-1,1E-1,4.4444445E-1,5E-1,-3.51831E-2,-2.2046426E-2,-1.8045764E-2,3.8674224E-2,-1.5095604E-2,8.875803E-3,2.1781342E-2,4.8625093E-2],"split_indices":[34,19,19,34,34,34,24,0,0,0,0,0,0,0,0],"split_type":[0,0,0,0,0,0,0,0,0,0,0,0,0,0,0],"sum_hessian":[3.7031003E3,1.7391918E3,1.9639086E3,1.6699817E3,6.921008E1,1.1684152E3,7.954934E2,5.911905E2,1.0787913E3,9.3100395E0,5.9900047E1,7.5663196E2,4.1178326E2,4.4045264E2,3.5504074E2],"tree_param":{"num_deleted":"0","num_feature":"58","num_nodes":"15","size_leaf_vector":"1"}},{"base_weights":[-2.5011447E-1,-5.6148267E-1,-6.094033E-2,-3.4828827E-2,-4.6993563E-1,-3.8658306E-1,1.02887444E-1,-2.6830265E-2,-1.1418485E-2,-2.996327E-2,-1.267619E-2,-1.3563595E-3,2.22096E-2],"categories":[],"categories_nodes":[],"categories_segments":[],"categories_sizes":[],"default_left":[0,0,0,0,0,0,0,0,0,0,0,0,0],"id":12,"left_children":[1,3,5,-1,7,9,11,-1,-1,-1,-1,-1,-1],"loss_changes":[2.1261868E2,1.3610657E1,1.2098095E2,0E0,1.2375198E1,1.9949158E1,6.719881E1,0E0,0E0,0E0,0E0,0E0,0E0],"parents":[2147483647,0,0,1,1,2,2,4,4,5,5,6,6],"right_children":[2,4,6,-1,8,10,12,-1,-1,-1,-1,-1,-1],"split_conditions":[2E-1,1E-1,1.5789473E-1,-3.4828827E-2,3E-1,7.692308E-2,3.75E-1,-2.6830265E-2,-1.1418485E-2,-2.996327E-2,-1.267619E-2,-1.3563595E-3,2.22096E-2],"split_indices":[10,10,40,0,40,40,10,0,0,0,0,0,0],"split_type":[0,0,0,0,0,0,0,0,0,0,0,0,0],"sum_hessian":[3.6054614E3,1.355204E3,2.2502576E3,5.2071185E2,8.344921E2,7.486194E2,1.5016381E3,6.4442413E2,1.90068E2,2.746233E2,4.7399612E2,1.0940731E3,4.0756488E2],"tree_param":{"num_deleted":"0","num_feature":"58","num_nodes":"13","size_leaf_vector":"1"}},{"base_weights":[3.3755615E-1,-2.9641096E-2,7.827551E-1,-3.6511537E-1,4.2690158E-1,-1.6986686E-1,9.0181E-1,-2.8264815E-2,-7.906537E-3,-7.2924765E-3,2.8579298E-2,-1.7424857E-2,2.737237E-2,3.51655E-2,5.3325087E-2],"categories":[],"categories_nodes":[],"categories_segments":[],"categories_sizes":[],"default_left":[0,0,0,0,0,0,0,0,0,0,0,0,0,0,0],"id":13,"left_children":[1,3,5,7,9,11,13,-1,-1,-1,-1,-1,-1,-1,-1],"loss_changes":[6.3311145E2,3.279677E2,2.000304E2,5.023079E1,7.602124E1,2.789974E1,4.3411255E1,0E0,0E0,0E0,0E0,0E0,0E0,0E0,0E0],"parents":[2147483647,0,0,1,1,2,2,3,3,4,4,5,5,6,6],"right_children":[2,4,6,8,10,12,14,-1,-1,-1,-1,-1,-1,-1,-1],"split_conditions":[5.555556E-1,6E-1,2.857143E-1,3.75E-1,2.5E-1,8.75E-1,7.1428573E-1,-2.8264815E-2,-7.906537E-3,-7.2924765E-3,2.8579298E-2,-1.7424857E-2,2.737237E-2,3.51655E-2,5.3325087E-2],"split_indices":[37,12,12,12,37,37,37,0,0,0,0,0,0,0,0],"split_type":[0,0,0,0,0,0,0,0,0,0,0,0,0,0,0],"sum_hessian":[3.8613945E3,2.121187E3,1.7402074E3,1.2238712E3,8.973159E2,1.9284929E2,1.5473582E3,6.1336084E2,6.105104E2,1.8094441E2,7.163715E2,1.5851619E2,3.4333103E1,7.255593E2,8.217988E2],"tree_param":{"num_deleted":"0","num_feature":"58","num_nodes":"15","size_leaf_vector":"1"}},{"base_weights":[-1.06167905E-1,-2.9772317E-1,4.7686568E-1,-4.611942E-1,1.0837935E-1,-4.6974432E-1,6.2505096E-1,-3.238278E-2,-1.7011506E-2,-1.8253742E-2,1.2693499E-2,-3.182929E-2,-4.748178E-3,4.0614676E-2,1.4290168E-2],"categories":[],"categories_nodes":[],"categories_segments":[],"categories_sizes":[],"default_left":[0,0,0,0,0,0,0,0,0,0,0,0,0,0,0],"id":14,"left_children":[1,3,5,7,9,11,13,-1,-1,-1,-1,-1,-1,-1,-1],"loss_changes":[4.1218292E2,1.8469041E2,1.3106123E2,4.245865E1,5.633688E1,7.4830456E0,4.811792E1,0E0,0E0,0E0,0E0,0E0,0E0,0E0,0E0],"parents":[2147483647,0,0,1,1,2,2,3,3,4,4,5,5,6,6],"right_children":[2,4,6,8,10,12,14,-1,-1,-1,-1,-1,-1,-1,-1],"split_conditions":[4E-1,1E-1,9.090909E-2,1.3333334E-1,1.0526316E-1,5E-2,-3E-1,-3.238278E-2,-1.7011506E-2,-1.8253742E-2,1.2693499E-2,-3.182929E-2,-4.748178E-3,4.0614676E-2,1.4290168E-2],"split_indices":[14,36,39,39,14,39,11,0,0,0,0,0,0,0,0],"split_type":[0,0,0,0,0,0,0,0,0,0,0,0,0,0,0],"sum_hessian":[3.6679333E3,2.7645393E3,9.0339386E2,1.9701327E3,7.944067E2,1.193411E2,7.8405273E2,7.5806476E2,1.2120679E3,1.8318741E2,6.112193E2,7.774552E1,4.159558E1,4.9622498E2,2.8782776E2],"tree_param":{"num_deleted":"0","num_feature":"58","num_nodes":"15","size_leaf_vector":"1"}},{"base_weights":[-2.4185978E-1,-4.2867747E-1,8.3841994E-2,-5.3506047E-1,-1.7414603E-1,-3.9409536E-1,2.7452326E-1,-3.056931E-2,-2.0673411E-2,-3.28496E-2,-2.073147E-3,-3.2569565E-2,-1.2860849E-2,7.2573805E-3,2.7004886E-2],"categories":[],"categories_nodes":[],"categories_segments":[],"categories_sizes":[],"default_left":[0,0,0,0,0,0,0,0,0,0,0,0,0,0,0],"id":15,"left_children":[1,3,5,7,9,11,13,-1,-1,-1,-1,-1,-1,-1,-1],"loss_changes":[2.1804962E2,6.0676147E1,1.2069092E2,1.2318756E1,4.3642395E1,1.1651146E1,3.165274E1,0E0,0E0,0E0,0E0,0E0,0E0,0E0,0E0],"parents":[2147483647,0,0,1,1,2,2,3,3,4,4,5,5,6,6],"right_children":[2,4,6,8,10,12,14,-1,-1,-1,-1,-1,-1,-1,-1],"split_conditions":[2.857143E-1,2.857143E-1,2E-1,1.25E-1,1E-1,1E-1,3.3333334E-1,-3.056931E-2,-2.0673411E-2,-3.28496E-2,-2.073147E-3,-3.2569565E-2,-1.2860849E-2,7.2573805E-3,2.7004886E-2],"split_indices":[35,10,10,35,35,10,10,0,0,0,0,0,0,0,0],"split_type":[0,0,0,0,0,0,0,0,0,0,0,0,0,0,0],"sum_hessian":[3.5676743E3,2.2652175E3,1.3024567E3,1.5897502E3,6.754673E2,3.684013E2,9.340554E2,9.519265E2,6.378237E2,1.3708533E2,5.3838196E2,1.148757E2,2.535256E2,6.384818E2,2.9557358E2],"tree_param":{"num_deleted":"0","num_feature":"58","num_nodes":"15","size_leaf_vector":"1"}},{"base_weights":[3.212381E-1,-4.411011E-2,7.5257695E-1,-3.5536054E-1,3.6178222E-1,-1.4276855E-1,8.523162E-1,-2.7883986E-2,-9.4775325E-3,-2.3137009E-2,2.3449745E-2,-1.4867077E-2,4.0157206E-2,3.414393E-2,5.0995596E-2],"categories":[],"categories_nodes":[],"categories_segments":[],"categories_sizes":[],"default_left":[0,0,0,0,0,0,0,0,0,0,0,0,0,0,0],"id":16,"left_children":[1,3,5,7,9,11,13,-1,-1,-1,-1,-1,-1,-1,-1],"loss_changes":[6.080004E2,2.6622925E2,1.5917908E2,3.8930695E1,8.306929E1,2.9563532E1,3.8271973E1,0E0,0E0,0E0,0E0,0E0,0E0,0E0,0E0],"parents":[2147483647,0,0,1,1,2,2,3,3,4,4,5,5,6,6],"right_children":[2,4,6,8,10,12,14,-1,-1,-1,-1,-1,-1,-1,-1],"split_conditions":[5.555556E-1,5.714286E-1,2.857143E-1,3.75E-1,2E-1,1E0,8E-1,-2.7883986E-2,-9.4775325E-3,-2.3137009E-2,2.3449745E-2,-1.4867077E-2,4.0157206E-2,3.414393E-2,5.0995596E-2],"split_indices":[37,8,8,8,37,37,37,0,0,0,0,0,0,0,0],"split_type":[0,0,0,0,0,0,0,0,0,0,0,0,0,0,0],"sum_hessian":[3.846037E3,2.0871653E3,1.758872E3,1.1820098E3,9.051556E2,1.7586266E2,1.5830093E3,5.217469E2,6.602628E2,1.0033846E2,8.048171E2,1.5705469E2,1.8807974E1,8.124129E2,7.705963E2],"tree_param":{"num_deleted":"0","num_feature":"58","num_nodes":"15","size_leaf_vector":"1"}},{"base_weights":[-1.0666234E-1,-3.5962185E-1,4.3597594E-1,1.2811378E-2,-4.9043918E-1,-1.6092698E-1,6.8517435E-1,-1.9304061E-2,1.2606911E-2,-3.1335723E-2,-1.7796861E-2,-1.4142613E-2,4.109565E-2,2.7661666E-2,4.8039664E-2],"categories":[],"categories_nodes":[],"categories_segments":[],"categories_sizes":[],"default_left":[0,0,0,0,0,0,0,0,0,0,0,0,0,0,0],"id":17,"left_children":[1,3,5,7,9,11,13,-1,-1,-1,-1,-1,-1,-1,-1],"loss_changes":[5.0081638E2,1.21190674E2,1.7378813E2,6.3600082E1,3.1498077E1,4.4269028E1,2.4537323E1,0E0,0E0,0E0,0E0,0E0,0E0,0E0,0E0],"parents":[2147483647,0,0,1,1,2,2,3,3,4,4,5,5,6,6],"right_children":[2,4,6,8,10,12,14,-1,-1,-1,-1,-1,-1,-1,-1],"split_conditions":[3.3333334E-1,3.846154E-1,1.923077E-1,1.25E-1,1.25E-1,9E-1,6.25E-1,-1.9304061E-2,1.2606911E-2,-3.1335723E-2,-1.7796861E-2,-1.4142613E-2,4.109565E-2,2.7661666E-2,4.8039664E-2],"split_indices":[9,42,44,9,9,9,9,0,0,0,0,0,0,0,0],"split_type":[0,0,0,0,0,0,0,0,0,0,0,0,0,0,0],"sum_hessian":[3.6271006E3,2.476168E3,1.1509325E3,6.4601166E2,1.8301564E3,3.4002222E2,8.1091034E2,2.3994945E2,4.0606223E2,8.909074E2,9.392489E2,3.088324E2,3.1189821E1,5.68728E2,2.4218228E2],"tree_param":{"num_deleted":"0","num_feature":"58","num_nodes":"15","size_leaf_vector":"1"}},{"base_weights":[-2.3628637E-1,-4.234799E-1,8.560638E-2,-5.318671E-1,-1.8691415E-1,-1.749242E-1,3.926596E-1,-3.044242E-2,-1.9997407E-2,-3.2613907E-2,-2.814375E-3,-3.2149006E-2,-3.78608E-3,9.918238E-3,2.836521E-2],"categories":[],"categories_nodes":[],"categories_segments":[],"categories_sizes":[],"default_left":[0,0,0,0,0,0,0,0,0,0,0,0,0,0,0],"id":18,"left_children":[1,3,5,7,9,11,13,-1,-1,-1,-1,-1,-1,-1,-1],"loss_changes":[2.1527754E2,5.687378E1,1.06267044E2,1.3227753E1,4.3677406E1,3.298671E1,1.9536026E1,0E0,0E0,0E0,0E0,0E0,0E0,0E0,0E0],"parents":[2147483647,0,0,1,1,2,2,3,3,4,4,5,5,6,6],"right_children":[2,4,6,8,10,12,14,-1,-1,-1,-1,-1,-1,-1,-1],"split_conditions":[2.857143E-1,2.2222222E-1,2.5E-1,2E-1,1E-1,1E-1,3.75E-1,-3.044242E-2,-1.9997407E-2,-3.2613907E-2,-2.814375E-3,-3.2149006E-2,-3.78608E-3,9.918238E-3,2.836521E-2],"split_indices":[35,10,10,10,35,10,35,0,0,0,0,0,0,0,0],"split_type":[0,0,0,0,0,0,0,0,0,0,0,0,0,0,0],"sum_hessian":[3.556684E3,2.2468782E3,1.3098058E3,1.5323292E3,7.1454895E2,7.109107E2,5.988951E2,9.448239E2,5.875053E2,1.4785907E2,5.666899E2,1.1473854E2,5.961722E2,2.9360883E2,3.052863E2],"tree_param":{"num_deleted":"0","num_feature":"58","num_nodes":"15","size_leaf_vector":"1"}},{"base_weights":[3.1701797E-1,-2.0724935E-2,7.209773E-1,-3.5704124E-1,3.148167E-1,-1.304632E-1,8.192638E-1,-2.6158428E-2,-7.6688263E-3,1.7191561E-4,2.6546333E-2,-1.6987642E-2,2.67988E-2,3.1890806E-2,4.9465757E-2],"categories":[],"categories_nodes":[],"categories_segments":[],"categories_sizes":[],"default_left":[0,0,0,0,0,0,0,0,0,0,0,0,0,0,0],"id":19,"left_children":[1,3,5,7,9,11,13,-1,-1,-1,-1,-1,-1,-1,-1],"loss_changes":[5.26289E2,2.3923799E2,1.4804639E2,3.501082E1,7.141556E1,2.837582E1,4.2315918E1,0E0,0E0,0E0,0E0,0E0,0E0,0E0,0E0],"parents":[2147483647,0,0,1,1,2,2,3,3,4,4,5,5,6,6],"right_children":[2,4,6,8,10,12,14,-1,-1,-1,-1,-1,-1,-1,-1],"split_conditions":[6E-1,5.3333336E-1,2.6086956E-1,3.529412E-1,3.3333334E-1,8.333333E-1,8E-1,-2.6158428E-2,-7.6688263E-3,1.7191561E-4,2.6546333E-2,-1.6987642E-2,2.67988E-2,3.1890806E-2,4.9465757E-2],"split_indices":[37,17,22,17,37,37,37,0,0,0,0,0,0,0,0],"split_type":[0,0,0,0,0,0,0,0,0,0,0,0,0,0,0],"sum_hessian":[3.846356E3,2.1000393E3,1.7463168E3,1.048489E3,1.0515503E3,1.803861E2,1.5659307E3,5.688201E2,4.7966882E2,4.349782E2,6.165721E2,1.4100624E2,3.9379856E1,7.805632E2,7.853675E2],"tree_param":{"num_deleted":"0","num_feature":"58","num_nodes":"15","size_leaf_vector":"1"}},{"base_weights":[-1.0351219E-1,-3.3173496E-1,3.61205E-1,-4.822856E-1,4.97605E-2,-3.9053187E-1,5.294254E-1,-3.1612065E-2,-1.9005997E-2,-1.8718103E-2,1.0216307E-2,-2.2595936E-2,2.6734013E-2,3.8333174E-2,1.3728282E-2],"categories":[],"categories_nodes":[],"categories_segments":[],"categories_sizes":[],"default_left":[0,0,0,0,0,0,0,0,0,0,0,0,0,0,0],"id":20,"left_children":[1,3,5,7,9,11,13,-1,-1,-1,-1,-1,-1,-1,-1],"loss_changes":[3.8544666E2,1.4008917E2,1.53567E2,2.4359406E1,4.6526623E1,1.5185291E1,5.734198E1,0E0,0E0,0E0,0E0,0E0,0E0,0E0,0E0],"parents":[2147483647,0,0,1,1,2,2,3,3,4,4,5,5,6,6],"right_children":[2,4,6,8,10,12,14,-1,-1,-1,-1,-1,-1,-1,-1],"split_conditions":[3.1578946E-1,1E-1,1.1764706E-1,1.5E-1,1.1764706E-1,9.285714E-1,-3.75E-1,-3.1612065E-2,-1.9005997E-2,-1.8718103E-2,1.0216307E-2,-2.2595936E-2,2.6734013E-2,3.8333174E-2,1.3728282E-2],"split_indices":[14,36,39,39,14,24,11,0,0,0,0,0,0,0,0],"split_type":[0,0,0,0,0,0,0,0,0,0,0,0,0,0,0],"sum_hessian":[3.6129666E3,2.4249395E3,1.188027E3,1.7368712E3,6.880683E2,2.1482214E2,9.7320483E2,6.8279755E2,1.0540736E3,1.799825E2,5.080858E2,2.0625298E2,8.569161E0,4.936268E2,4.7957806E2],"tree_param":{"num_deleted":"0","num_feature":"58","num_nodes":"15","size_leaf_vector":"1"}},{"base_weights":[-2.3370984E-1,-5.3523284E-1,-5.6897234E-2,-3.3498734E-2,-4.4283047E-1,-3.7341708E-1,9.860887E-2,-2.515384E-2,-1.1771386E-2,-2.8208166E-2,-1.2394633E-2,-9.1297505E-4,2.0226272E-2],"categories":[],"categories_nodes":[],"categories_segments":[],"categories_sizes":[],"default_left":[0,0,0,0,0,0,0,0,0,0,0,0,0],"id":21,"left_children":[1,3,5,-1,7,9,11,-1,-1,-1,-1,-1,-1],"loss_changes":[1.8547458E2,1.3055542E1,1.0903729E2,0E0,8.722839E0,1.6066498E1,5.328557E1,0E0,0E0,0E0,0E0,0E0,0E0],"parents":[2147483647,0,0,1,1,2,2,4,4,5,5,6,6],"right_children":[2,4,6,-1,8,10,12,-1,-1,-1,-1,-1,-1],"split_conditions":[2E-1,1E-1,1.5789473E-1,-3.3498734E-2,3E-1,7.692308E-2,4E-1,-2.515384E-2,-1.1771386E-2,-2.8208166E-2,-1.2394633E-2,-9.1297505E-4,2.0226272E-2],"split_indices":[10,10,40,0,40,40,10,0,0,0,0,0,0],"split_type":[0,0,0,0,0,0,0,0,0,0,0,0,0],"sum_hessian":[3.4746821E3,1.276893E3,2.197789E3,4.9401318E2,7.8287976E2,7.194319E2,1.4783573E3,5.956108E2,1.87269E2,2.7166565E2,4.4776624E2,1.0765061E3,4.018512E2],"tree_param":{"num_deleted":"0","num_feature":"58","num_nodes":"13","size_leaf_vector":"1"}},{"base_weights":[2.9803383E-1,-1.6824071E-1,5.830012E-1,-3.9998847E-1,2.1975303E-1,-1.1937237E-1,7.199738E-1,-2.9853439E-2,-1.2987621E-2,2.1002546E-3,2.6611645E-2,-3.0618368E-2,4.380896E-3,2.76723E-2,4.7564797E-2],"categories":[],"categories_nodes":[],"categories_segments":[],"categories_sizes":[],"default_left":[0,0,0,0,0,0,0,0,0,0,0,0,0,0,0],"id":22,"left_children":[1,3,5,7,9,11,13,-1,-1,-1,-1,-1,-1,-1,-1],"loss_changes":[5.133455E2,1.3309863E2,2.3132831E2,2.3990372E1,3.06762E1,4.130475E1,7.201196E1,0E0,0E0,0E0,0E0,0E0,0E0,0E0,0E0],"parents":[2147483647,0,0,1,1,2,2,3,3,4,4,5,5,6,6],"right_children":[2,4,6,8,10,12,14,-1,-1,-1,-1,-1,-1,-1,-1],"split_conditions":[4.4444445E-1,5.882353E-1,3.5E-1,3E-1,7.222222E-1,7.692308E-2,7.1428573E-1,-2.9853439E-2,-1.2987621E-2,2.1002546E-3,2.6611645E-2,-3.0618368E-2,4.380896E-3,2.76723E-2,4.7564797E-2],"split_indices":[37,17,17,37,17,32,37,0,0,0,0,0,0,0,0],"split_type":[0,0,0,0,0,0,0,0,0,0,0,0,0,0,0],"sum_hessian":[3.846047E3,1.4604685E3,2.3855786E3,9.1414355E2,5.46325E2,3.8951135E2,1.9960673E3,3.665033E2,5.4764026E2,3.554682E2,1.9085677E2,1.0938987E2,2.801215E2,1.1802999E3,8.157674E2],"tree_param":{"num_deleted":"0","num_feature":"58","num_nodes":"15","size_leaf_vector":"1"}},{"base_weights":[-1.0731299E-1,-3.4114853E-1,3.983601E-1,-4.6229434E-1,1.9564718E-1,-3.685529E-1,6.064771E-1,-3.051728E-2,-1.622227E-2,-2.9919282E-2,1.5042665E-2,-3.230611E-2,-2.8467912E-3,2.2808878E-2,4.5573365E-2],"categories":[],"categories_nodes":[],"categories_segments":[],"categories_sizes":[],"default_left":[0,0,0,0,0,0,0,0,0,0,0,0,0,0,0],"id":23,"left_children":[1,3,5,7,9,11,13,-1,-1,-1,-1,-1,-1,-1,-1],"loss_changes":[4.2749548E2,1.615101E2,1.8485332E2,3.9203064E1,4.0375023E1,2.1293953E1,3.7268982E1,0E0,0E0,0E0,0E0,0E0,0E0,0E0,0E0],"parents":[2147483647,0,0,1,1,2,2,3,3,4,4,5,5,6,6],"right_children":[2,4,6,8,10,12,14,-1,-1,-1,-1,-1,-1,-1,-1],"split_conditions":[3.3333334E-1,5E-1,1.25E-1,1.4285715E-1,1E-1,1E-1,6.25E-1,-3.051728E-2,-1.622227E-2,-2.9919282E-2,1.5042665E-2,-3.230611E-2,-2.8467912E-3,2.2808878E-2,4.5573365E-2],"split_indices":[9,34,34,9,9,34,9,0,0,0,0,0,0,0,0],"split_type":[0,0,0,0,0,0,0,0,0,0,0,0,0,0,0],"sum_hessian":[3.593864E3,2.4596948E3,1.1341691E3,2.0079271E3,4.517678E2,2.404393E2,8.937298E2,9.516106E2,1.0563165E3,4.7370003E1,4.0439777E2,1.2148947E2,1.1894983E2,6.1541144E2,2.7831836E2],"tree_param":{"num_deleted":"0","num_feature":"58","num_nodes":"15","size_leaf_vector":"1"}},{"base_weights":[-2.2088522E-1,-3.9973095E-1,7.900792E-2,-5.029833E-1,-1.6165486E-1,-3.7184462E-1,2.5379974E-1,-2.9117018E-2,-1.900291E-2,-3.1570252E-2,-2.07472E-3,-3.1274542E-2,-1.2126753E-2,7.854204E-3,3.1123584E-2],"categories":[],"categories_nodes":[],"categories_segments":[],"categories_sizes":[],"default_left":[0,0,0,0,0,0,0,0,0,0,0,0,0,0,0],"id":24,"left_children":[1,3,5,7,9,11,13,-1,-1,-1,-1,-1,-1,-1,-1],"loss_changes":[1.8703929E2,5.2836365E1,1.0409358E2,1.2590332E1,3.7835205E1,1.0610062E1,3.2866444E1,0E0,0E0,0E0,0E0,0E0,0E0,0E0,0E0],"parents":[2147483647,0,0,1,1,2,2,3,3,4,4,5,5,6,6],"right_children":[2,4,6,8,10,12,14,-1,-1,-1,-1,-1,-1,-1,-1],"split_conditions":[2.857143E-1,2.857143E-1,2E-1,1.25E-1,1E-1,1E-1,4.2857143E-1,-2.9117018E-2,-1.900291E-2,-3.1570252E-2,-2.07472E-3,-3.1274542E-2,-1.2126753E-2,7.854204E-3,3.1123584E-2],"split_indices":[35,10,10,35,35,10,35,0,0,0,0,0,0,0,0],"split_type":[0,0,0,0,0,0,0,0,0,0,0,0,0,0,0],"sum_hessian":[3.471399E3,2.1724795E3,1.2989196E3,1.5075404E3,6.649391E2,3.597411E2,9.3917847E2,8.934071E2,6.141333E2,1.2677673E2,5.3816235E2,1.08514206E2,2.5122688E2,7.552979E2,1.8388052E2],"tree_param":{"num_deleted":"0","num_feature":"58","num_nodes":"15","size_leaf_vector":"1"}},{"base_weights":[2.8534025E-1,-7.002111E-2,6.363139E-1,-3.2293648E-1,3.622525E-1,1.7084286E-1,7.563337E-1,-2.974762E-2,-1.017722E-2,-2.1533908E-2,2.5344873E-2,-1.0697343E-2,1.4970188E-2,2.9407768E-2,4.4648185E-2],"categories":[],"categories_nodes":[],"categories_segments":[],"categories_sizes":[],"default_left":[0,0,0,0,0,0,0,0,0,0,0,0,0,0,0],"id":25,"left_children":[1,3,5,7,9,11,13,-1,-1,-1,-1,-1,-1,-1,-1],"loss_changes":[4.8264493E2,2.1218394E2,1.0742755E2,3.8506096E1,8.443471E1,2.1014175E1,3.0231873E1,0E0,0E0,0E0,0E0,0E0,0E0,0E0,0E0],"parents":[2147483647,0,0,1,1,2,2,3,3,4,4,5,5,6,6],"right_children":[2,4,6,8,10,12,14,-1,-1,-1,-1,-1,-1,-1,-1],"split_conditions":[5.555556E-1,6E-1,4E-1,2.5E-1,1.4285715E-1,2.3529412E-1,6.363636E-1,-2.974762E-2,-1.017722E-2,-2.1533908E-2,2.5344873E-2,-1.0697343E-2,1.4970188E-2,2.9407768E-2,4.4648185E-2],"split_indices":[12,42,42,12,12,42,42,0,0,0,0,0,0,0,0],"split_type":[0,0,0,0,0,0,0,0,0,0,0,0,0,0,0],"sum_hessian":[3.856179E3,1.9200901E3,1.936089E3,1.2129465E3,7.071435E2,4.0184668E2,1.5342423E3,3.5783786E2,8.551087E2,1.0604413E2,6.0109937E2,9.897312E1,3.0287357E2,7.115009E2,8.2274133E2],"tree_param":{"num_deleted":"0","num_feature":"58","num_nodes":"15","size_leaf_vector":"1"}},{"base_weights":[-1.03195414E-1,-3.2129008E-1,3.284812E-1,6.487082E-2,-4.604221E-1,-3.8343194E-1,4.7474772E-1,-1.6777182E-2,9.966991E-3,-2.9415403E-2,-1.7229715E-2,-2.2366984E-2,2.6476214E-2,1.6017204E-2,4.061303E-2],"categories":[],"categories_nodes":[],"categories_segments":[],"categories_sizes":[],"default_left":[0,0,0,0,0,0,0,0,0,0,0,0,0,0,0],"id":26,"left_children":[1,3,5,7,9,11,13,-1,-1,-1,-1,-1,-1,-1,-1],"loss_changes":[3.3596982E2,1.2754692E2,1.2666835E2,3.4917244E1,2.3781433E1,1.4614378E1,4.946379E1,0E0,0E0,0E0,0E0,0E0,0E0,0E0,0E0],"parents":[2147483647,0,0,1,1,2,2,3,3,4,4,5,5,6,6],"right_children":[2,4,6,8,10,12,14,-1,-1,-1,-1,-1,-1,-1,-1],"split_conditions":[3.1578946E-1,3.75E-1,1.1764706E-1,1.0526316E-1,1.764706E-1,9.375E-1,6.111111E-1,-1.6777182E-2,9.966991E-3,-2.9415403E-2,-1.7229715E-2,-2.2366984E-2,2.6476214E-2,1.6017204E-2,4.061303E-2],"split_indices":[14,37,39,14,39,19,14,0,0,0,0,0,0,0,0],"split_type":[0,0,0,0,0,0,0,0,0,0,0,0,0,0,0],"sum_hessian":[3.5473806E3,2.358407E3,1.1889738E3,6.260746E2,1.7323324E3,1.9988286E2,9.890908E2,1.536351E2,4.7243945E2,8.0392456E2,9.2840784E2,1.9157271E2,8.310161E0,6.9200653E2,2.9708432E2],"tree_param":{"num_deleted":"0","num_feature":"58","num_nodes":"15","size_leaf_vector":"1"}},{"base_weights":[-2.0565817E-1,-3.828971E-1,9.3550764E-2,-3.2780565E-2,-2.917011E-1,-2.0140927E-1,2.3386022E-1,-1.6583307E-2,1.0652612E-2,-2.3983402E-2,-5.446294E-3,7.6885284E-3,2.6770337E-2],"categories":[],"categories_nodes":[],"categories_segments":[],"categories_sizes":[],"default_left":[0,0,0,0,0,0,0,0,0,0,0,0,0],"id":27,"left_children":[1,3,5,-1,7,9,11,-1,-1,-1,-1,-1,-1],"loss_changes":[1.8315102E2,5.1971893E1,5.386998E1,0E0,3.382303E1,1.0319239E1,2.0404778E1,0E0,0E0,0E0,0E0,0E0,0E0],"parents":[2147483647,0,0,1,1,2,2,4,4,5,5,6,6],"right_children":[2,4,6,-1,8,10,12,-1,-1,-1,-1,-1,-1],"split_conditions":[2.857143E-1,1E-1,2E-1,-3.2780565E-2,3.6363637E-1,6.666667E-2,4.2857143E-1,-1.6583307E-2,1.0652612E-2,-2.3983402E-2,-5.446294E-3,7.6885284E-3,2.6770337E-2],"split_indices":[35,35,15,0,15,15,35,0,0,0,0,0,0],"split_type":[0,0,0,0,0,0,0,0,0,0,0,0,0],"sum_hessian":[3.4368745E3,2.1565984E3,1.2802762E3,5.2493445E2,1.6316638E3,4.1129434E2,8.689819E2,1.5151292E3,1.1653469E2,9.215582E1,3.1913852E2,6.9854913E2,1.7043275E2],"tree_param":{"num_deleted":"0","num_feature":"58","num_nodes":"13","size_leaf_vector":"1"}},{"base_weights":[2.7908644E-1,-1.1972504E-1,5.314003E-1,-2.5112054E-1,5.33145E-1,-1.3142739E-1,6.6976494E-1,-2.2788964E-2,-3.4584687E-3,-7.4397363E-3,2.906901E-2,-1.6546963E-2,1.6942415E-2,2.749229E-2,4.3724794E-2],"categories":[],"categories_nodes":[],"categories_segments":[],"categories_sizes":[],"default_left":[0,0,0,0,0,0,0,0,0,0,0,0,0,0,0],"id":28,"left_children":[1,3,5,7,9,11,13,-1,-1,-1,-1,-1,-1,-1,-1],"loss_changes":[3.8907095E2,1.3035852E2,2.1788818E2,4.6560608E1,9.2589035E0,4.0246372E1,4.3292175E1,0E0,0E0,0E0,0E0,0E0,0E0,0E0,0E0],"parents":[2147483647,0,0,1,1,2,2,3,3,4,4,5,5,6,6],"right_children":[2,4,6,8,10,12,14,-1,-1,-1,-1,-1,-1,-1,-1],"split_conditions":[4.4444445E-1,7.222222E-1,3.5E-1,4.7058824E-1,1.5384616E-1,8E-1,7.1428573E-1,-2.2788964E-2,-3.4584687E-3,-7.4397363E-3,2.906901E-2,-1.6546963E-2,1.6942415E-2,2.749229E-2,4.3724794E-2],"split_indices":[33,17,17,17,42,33,33,0,0,0,0,0,0,0,0],"split_type":[0,0,0,0,0,0,0,0,0,0,0,0,0,0,0],"sum_hessian":[3.850195E3,1.4940034E3,2.3561917E3,1.2488214E3,2.45182E2,4.0699707E2,1.9491946E3,5.80653E2,6.6816833E2,1.4819473E1,2.3036253E2,2.878438E2,1.1915328E2,1.2524446E3,6.9674994E2],"tree_param":{"num_deleted":"0","num_feature":"58","num_nodes":"15","size_leaf_vector":"1"}},{"base_weights":[-9.823132E-2,-3.2325935E-1,3.6777318E-1,-4.8590463E-1,-3.9046723E-2,-7.5503275E-2,6.024881E-1,-3.0006692E-2,-1.8583875E-2,-1.9235794E-2,9.0964185E-3,-3.0832857E-2,5.1896097E-3,2.4048317E-2,4.279168E-2],"categories":[],"categories_nodes":[],"categories_segments":[],"categories_sizes":[],"default_left":[0,0,0,0,0,0,0,0,0,0,0,0,0,0,0],"id":29,"left_children":[1,3,5,7,9,11,13,-1,-1,-1,-1,-1,-1,-1,-1],"loss_changes":[3.7155743E2,1.1015538E2,1.2060487E2,1.7568268E1,6.7896286E1,4.0291824E1,1.9162842E1,0E0,0E0,0E0,0E0,0E0,0E0,0E0,0E0],"parents":[2147483647,0,0,1,1,2,2,3,3,4,4,5,5,6,6],"right_children":[2,4,6,8,10,12,14,-1,-1,-1,-1,-1,-1,-1,-1],"split_conditions":[3.3333334E-1,-1E-1,2.173913E-1,1.6666667E-1,1.25E-1,3.3333335E-2,6.25E-1,-3.0006692E-2,-1.8583875E-2,-1.9235794E-2,9.0964185E-3,-3.0832857E-2,5.1896097E-3,2.4048317E-2,4.279168E-2],"split_indices":[9,36,44,9,9,44,9,0,0,0,0,0,0,0,0],"split_type":[0,0,0,0,0,0,0,0,0,0,0,0,0,0,0],"sum_hessian":[3.521892E3,2.3770876E3,1.1448043E3,1.5073728E3,8.6971497E2,3.9866992E2,7.461344E2,7.3241046E2,7.7496234E2,3.3627435E2,5.3344055E2,9.3144775E1,3.0552515E2,5.238465E2,2.2228789E2],"tree_param":{"num_deleted":"0","num_feature":"58","num_nodes":"15","size_leaf_vector":"1"}},{"base_weights":[-2.088789E-1,-3.9154547E-1,8.709332E-2,-3.2369208E-2,-3.0600825E-1,-2.0726745E-1,2.318313E-1,-2.2682237E-2,-9.20272E-3,-1.3510327E-2,6.945114E-3,7.587383E-3,2.67153E-2],"categories":[],"categories_nodes":[],"categories_segments":[],"categories_sizes":[],"default_left":[0,0,0,0,0,0,0,0,0,0,0,0,0],"id":30,"left_children":[1,3,5,-1,7,9,11,-1,-1,-1,-1,-1,-1],"loss_changes":[1.8493954E2,4.4263092E1,5.6346775E1,0E0,2.8020493E1,9.907454E0,2.0596584E1,0E0,0E0,0E0,0E0,0E0,0E0],"parents":[2147483647,0,0,1,1,2,2,4,4,5,5,6,6],"right_children":[2,4,6,-1,8,10,12,-1,-1,-1,-1,-1,-1],"split_conditions":[2.857143E-1,1E-1,2E-1,-3.2369208E-2,1.8181819E-1,4.4444445E-1,4.2857143E-1,-2.2682237E-2,-9.20272E-3,-1.3510327E-2,6.945114E-3,7.587383E-3,2.67153E-2],"split_indices":[35,35,15,0,20,35,35,0,0,0,0,0,0],"split_type":[0,0,0,0,0,0,0,0,0,0,0,0,0],"sum_hessian":[3.40443E3,2.1031746E3,1.3012552E3,5.105259E2,1.5926487E3,4.2750235E2,8.7375287E2,7.081588E2,8.844899E2,3.6359033E2,6.3912045E1,7.027173E2,1.7103557E2],"tree_param":{"num_deleted":"0","num_feature":"58","num_nodes":"13","size_leaf_vector":"1"}},{"base_weights":[2.649683E-1,-1.613484E-1,5.215923E-1,-4.1471693E-1,1.9946887E-1,-6.8438746E-2,6.644968E-1,-2.8962014E-2,-1.2855175E-2,1.4724032E-3,2.9798565E-2,-3.1796616E-2,4.9893963E-3,2.3934467E-2,3.987224E-2],"categories":[],"categories_nodes":[],"categories_segments":[],"categories_sizes":[],"default_left":[0,0,0,0,0,0,0,0,0,0,0,0,0,0,0],"id":31,"left_children":[1,3,5,7,9,11,13,-1,-1,-1,-1,-1,-1,-1,-1],"loss_changes":[4.2394806E2,1.3437933E2,2.0421283E2,2.0849518E1,4.0906403E1,4.6481216E1,4.42619E1,0E0,0E0,0E0,0E0,0E0,0E0,0E0,0E0],"parents":[2147483647,0,0,1,1,2,2,3,3,4,4,5,5,6,6],"right_children":[2,4,6,8,10,12,14,-1,-1,-1,-1,-1,-1,-1,-1],"split_conditions":[4.2857143E-1,6E-1,3.75E-1,4E-1,7.777778E-1,1E-1,6.666667E-1,-2.8962014E-2,-1.2855175E-2,1.4724032E-3,2.9798565E-2,-3.1796616E-2,4.9893963E-3,2.3934467E-2,3.987224E-2],"split_indices":[37,12,12,12,12,12,37,0,0,0,0,0,0,0,0],"split_type":[0,0,0,0,0,0,0,0,0,0,0,0,0,0,0],"sum_hessian":[3.8574087E3,1.4508674E3,2.4065413E3,8.514671E2,5.9940027E2,4.702326E2,1.9363087E3,4.0351303E2,4.479541E2,4.270313E2,1.7236894E2,1.0116429E2,3.6906833E2,8.267931E2,1.1095156E3],"tree_param":{"num_deleted":"0","num_feature":"58","num_nodes":"15","size_leaf_vector":"1"}},{"base_weights":[-9.35246E-2,-3.151698E-1,3.6425433E-1,-4.905222E-1,3.2338604E-2,-3.4024122E-1,5.544978E-1,-3.062424E-2,-1.8838814E-2,-1.665457E-2,1.2978189E-2,-3.1349633E-2,-2.4442144E-3,1.6898839E-2,3.677262E-2],"categories":[],"categories_nodes":[],"categories_segments":[],"categories_sizes":[],"default_left":[0,0,0,0,0,0,0,0,0,0,0,0,0,0,0],"id":32,"left_children":[1,3,5,7,9,11,13,-1,-1,-1,-1,-1,-1,-1,-1],"loss_changes":[3.5806897E2,1.4491278E2,1.5631082E2,1.9603485E1,6.779516E1,2.0679089E1,3.3208374E1,0E0,0E0,0E0,0E0,0E0,0E0,0E0,0E0],"parents":[2147483647,0,0,1,1,2,2,3,3,4,4,5,5,6,6],"right_children":[2,4,6,8,10,12,14,-1,-1,-1,-1,-1,-1,-1,-1],"split_conditions":[3.3333334E-1,3.75E-1,1.25E-1,1.1111111E-1,1.1111111E-1,1E-1,3.75E-1,-3.062424E-2,-1.8838814E-2,-1.665457E-2,1.2978189E-2,-3.1349633E-2,-2.4442144E-3,1.6898839E-2,3.677262E-2],"split_indices":[9,34,34,9,9,34,34,0,0,0,0,0,0,0,0],"split_type":[0,0,0,0,0,0,0,0,0,0,0,0,0,0,0],"sum_hessian":[3.5076929E3,2.3654944E3,1.1421985E3,1.5694408E3,7.9605365E2,2.41183E2,9.0101556E2,7.3620636E2,8.332344E2,3.0342227E2,4.9263138E2,1.1574644E2,1.25436554E2,4.232516E2,4.7776395E2],"tree_param":{"num_deleted":"0","num_feature":"58","num_nodes":"15","size_leaf_vector":"1"}},{"base_weights":[-1.9988109E-1,-5.110487E-1,-3.1409934E-2,-3.1994153E-2,-4.1105512E-1,-2.911969E-1,1.1263429E-1,-2.2113685E-2,6.943976E-3,-2.6000619E-2,-1.0593338E-2,4.497611E-4,1.6345538E-2],"categories":[],"categories_nodes":[],"categories_segments":[],"categories_sizes":[],"default_left":[0,0,0,0,0,0,0,0,0,0,0,0,0],"id":33,"left_children":[1,3,5,-1,7,9,11,-1,-1,-1,-1,-1,-1],"loss_changes":[1.77515E2,1.2697662E1,8.300799E1,0E0,1.25950775E1,1.3254524E1,3.1695507E1,0E0,0E0,0E0,0E0,0E0,0E0],"parents":[2147483647,0,0,1,1,2,2,4,4,5,5,6,6],"right_children":[2,4,6,-1,8,10,12,-1,-1,-1,-1,-1,-1],"split_conditions":[1.4285715E-1,1E-1,1.8181819E-1,-3.1994153E-2,3.846154E-1,8.3333336E-2,3.3333334E-1,-2.2113685E-2,6.943976E-3,-2.6000619E-2,-1.0593338E-2,4.497611E-4,1.6345538E-2],"split_indices":[35,35,15,0,15,15,35,0,0,0,0,0,0],"split_type":[0,0,0,0,0,0,0,0,0,0,0,0,0],"sum_hessian":[3.3792822E3,1.1798168E3,2.1994656E3,4.9196442E2,6.8785236E2,7.808925E2,1.418573E3,6.5275464E2,3.5097736E1,1.8673482E2,5.941577E2,9.6314746E2,4.5542557E2],"tree_param":{"num_deleted":"0","num_feature":"58","num_nodes":"13","size_leaf_vector":"1"}},{"base_weights":[2.5210875E-1,-1.5107195E-1,4.9804038E-1,-3.2783914E-1,3.34493E-1,-9.508306E-2,6.405823E-1,-2.753655E-2,-9.499931E-3,3.8860824E-3,2.9685948E-2,-1.4100194E-2,1.8123988E-2,2.5430134E-2,4.1007277E-2],"categories":[],"categories_nodes":[],"categories_segments":[],"categories_sizes":[],"default_left":[0,0,0,0,0,0,0,0,0,0,0,0,0,0,0],"id":34,"left_children":[1,3,5,7,9,11,13,-1,-1,-1,-1,-1,-1,-1,-1],"loss_changes":[3.864284E2,1.2824394E2,2.050625E2,3.2474533E1,2.6183365E1,4.18423E1,4.2065063E1,0E0,0E0,0E0,0E0,0E0,0E0,0E0,0E0],"parents":[2147483647,0,0,1,1,2,2,3,3,4,4,5,5,6,6],"right_children":[2,4,6,8,10,12,14,-1,-1,-1,-1,-1,-1,-1,-1],"split_conditions":[5E-1,7E-1,4E-1,4E-1,7.777778E-1,8E-1,7.1428573E-1,-2.753655E-2,-9.499931E-3,3.8860824E-3,2.9685948E-2,-1.4100194E-2,1.8123988E-2,2.5430134E-2,4.1007277E-2],"split_indices":[37,12,12,12,12,37,37,0,0,0,0,0,0,0,0],"split_type":[0,0,0,0,0,0,0,0,0,0,0,0,0,0,0],"sum_hessian":[3.879632E3,1.471352E3,2.40828E3,1.0810502E3,3.903019E2,4.6727158E2,1.9410084E3,4.0163742E2,6.794127E2,2.0260931E2,1.8769261E2,3.3447192E2,1.3279965E2,1.1408231E3,8.0018524E2],"tree_param":{"num_deleted":"0","num_feature":"58","num_nodes":"15","size_leaf_vector":"1"}},{"base_weights":[-8.2718715E-2,-2.849197E-1,3.0575994E-1,6.551298E-2,-4.21511E-1,-4.868533E-1,4.1668648E-1,-1.6647242E-2,9.30754E-3,-2.942263E-2,-1.6281638E-2,-2.600574E-2,1.3600783E-2,1.4241402E-2,3.5210434E-2],"categories":[],"categories_nodes":[],"categories_segments":[],"categories_sizes":[],"default_left":[0,0,0,0,0,0,0,0,0,0,0,0,0,0,0],"id":35,"left_children":[1,3,5,7,9,11,13,-1,-1,-1,-1,-1,-1,-1,-1],"loss_changes":[2.734961E2,1.0978308E2,1.0691109E2,3.1878508E1,2.4453644E1,5.2278023E0,3.7871887E1,0E0,0E0,0E0,0E0,0E0,0E0,0E0,0E0],"parents":[2147483647,0,0,1,1,2,2,3,3,4,4,5,5,6,6],"right_children":[2,4,6,8,10,12,14,-1,-1,-1,-1,-1,-1,-1,-1],"split_conditions":[3.1578946E-1,4E-1,8.3333336E-2,1.0526316E-1,1.5E-1,1E0,6.111111E-1,-1.6647242E-2,9.30754E-3,-2.942263E-2,-1.6281638E-2,-2.600574E-2,1.3600783E-2,1.4241402E-2,3.5210434E-2],"split_indices":[14,37,39,14,39,14,14,0,0,0,0,0,0,0,0],"split_type":[0,0,0,0,0,0,0,0,0,0,0,0,0,0,0],"sum_hessian":[3.4606838E3,2.2777783E3,1.1829054E3,6.4028766E2,1.6374907E3,1.4106334E2,1.041842E3,1.4471289E2,4.9557477E2,5.7862445E2,1.0588662E3,1.3815417E2,2.909165E0,7.279216E2,3.1392047E2],"tree_param":{"num_deleted":"0","num_feature":"58","num_nodes":"15","size_leaf_vector":"1"}},{"base_weights":[-1.8987867E-1,-4.9673444E-1,-2.1735648E-2,-3.1873386E-2,-4.0548754E-1,-4.0377164E-1,1.422969E-1,-2.4805108E-2,-1.016008E-2,-3.1254172E-2,-1.3027891E-2,1.8704869E-3,2.009691E-2],"categories":[],"categories_nodes":[],"categories_segments":[],"categories_sizes":[],"default_left":[0,0,0,0,0,0,0,0,0,0,0,0,0],"id":36,"left_children":[1,3,5,-1,7,9,11,-1,-1,-1,-1,-1,-1],"loss_changes":[1.7267416E2,1.2631805E1,1.3679933E2,0E0,1.2672531E1,1.915026E1,4.1467655E1,0E0,0E0,0E0,0E0,0E0,0E0],"parents":[2147483647,0,0,1,1,2,2,4,4,5,5,6,6],"right_children":[2,4,6,-1,8,10,12,-1,-1,-1,-1,-1,-1],"split_conditions":[2E-1,1E-1,1.6666667E-1,-3.1873386E-2,2.5E-1,1E-1,4E-1,-2.4805108E-2,-1.016008E-2,-3.1254172E-2,-1.3027891E-2,1.8704869E-3,2.009691E-2],"split_indices":[10,10,35,0,35,35,10,0,0,0,0,0,0],"split_type":[0,0,0,0,0,0,0,0,0,0,0,0,0],"sum_hessian":[3.338773E3,1.1749619E3,2.163811E3,4.386125E2,7.363494E2,6.45593E2,1.518218E3,4.9851385E2,2.3783557E2,2.4041975E2,4.0517328E2,1.0895242E3,4.286938E2],"tree_param":{"num_deleted":"0","num_feature":"58","num_nodes":"13","size_leaf_vector":"1"}},{"base_weights":[2.493931E-1,-3.7244443E-2,5.3153884E-1,-2.595374E-1,3.1891242E-1,8.922112E-2,6.4965236E-1,-2.7745614E-2,-7.761E-3,-2.1256058E-2,2.1135334E-2,-2.2961758E-2,1.1026215E-2,-2.0708201E-2,3.3076677E-2],"categories":[],"categories_nodes":[],"categories_segments":[],"categories_sizes":[],"default_left":[0,0,0,0,0,0,0,0,0,0,0,0,0,0,0],"id":37,"left_children":[1,3,5,7,9,11,13,-1,-1,-1,-1,-1,-1,-1,-1],"loss_changes":[3.101284E2,1.5207268E2,1.0035144E2,3.5551186E1,5.8837875E1,3.1168972E1,2.1991821E1,0E0,0E0,0E0,0E0,0E0,0E0,0E0,0E0],"parents":[2147483647,0,0,1,1,2,2,3,3,4,4,5,5,6,6],"right_children":[2,4,6,8,10,12,14,-1,-1,-1,-1,-1,-1,-1,-1],"split_conditions":[5.714286E-1,6E-1,3.75E-1,3E-1,1.3333334E-1,1.5789473E-1,1.5E-1,-2.7745614E-2,-7.761E-3,-2.1256058E-2,2.1135334E-2,-2.2961758E-2,1.1026215E-2,-2.0708201E-2,3.3076677E-2],"split_indices":[8,42,42,8,22,42,17,0,0,0,0,0,0,0,0],"split_type":[0,0,0,0,0,0,0,0,0,0,0,0,0,0,0],"sum_hessian":[3.8222834E3,1.9003546E3,1.9219287E3,1.1717361E3,7.286185E2,4.0875507E2,1.5131737E3,2.9454285E2,8.7719324E2,8.5410225E1,6.432083E2,7.413139E1,3.3462366E2,1.29734E1,1.5002003E3],"tree_param":{"num_deleted":"0","num_feature":"58","num_nodes":"15","size_leaf_vector":"1"}},{"base_weights":[-8.481014E-2,-4.1902372E-1,1.7473432E-1,-4.8224562E-1,1.5813252E-1,-1.0764949E-1,4.8697984E-1,-3.157332E-2,-1.991934E-2,-2.6340092E-2,1.8189816E-2,-1.3152674E-2,7.83525E-3,1.4425488E-2,3.3519544E-2],"categories":[],"categories_nodes":[],"categories_segments":[],"categories_sizes":[],"default_left":[0,0,0,0,0,0,0,0,0,0,0,0,0,0,0],"id":38,"left_children":[1,3,5,7,9,11,13,-1,-1,-1,-1,-1,-1,-1,-1],"loss_changes":[3.0177374E2,5.622458E1,1.7338934E2,1.4657593E1,2.4115715E1,4.3041817E1,3.2022827E1,0E0,0E0,0E0,0E0,0E0,0E0,0E0,0E0],"parents":[2147483647,0,0,1,1,2,2,3,3,4,4,5,5,6,6],"right_children":[2,4,6,8,10,12,14,-1,-1,-1,-1,-1,-1,-1,-1],"split_conditions":[2.2222222E-1,5.555556E-1,2.631579E-1,1E-1,1E-1,5E-1,4.5E-1,-3.157332E-2,-1.991934E-2,-2.6340092E-2,1.8189816E-2,-1.3152674E-2,7.83525E-3,1.4425488E-2,3.3519544E-2],"split_indices":[34,14,14,34,34,34,14,0,0,0,0,0,0,0,0],"split_type":[0,0,0,0,0,0,0,0,0,0,0,0,0,0,0],"sum_hessian":[3.4604888E3,1.5099684E3,1.9505203E3,1.3623776E3,1.4759088E2,1.0276775E3,9.228428E2,4.6667017E2,8.9570734E2,3.0476954E1,1.1711392E2,6.4723926E2,3.8043823E2,4.5558344E2,4.6725934E2],"tree_param":{"num_deleted":"0","num_feature":"58","num_nodes":"15","size_leaf_vector":"1"}},{"base_weights":[-1.8730105E-1,-4.9153793E-1,-2.4932833E-2,-3.13216E-2,-3.89358E-1,-2.008569E-1,1.7038633E-1,-2.0885726E-2,4.1791894E-3,-1.996632E-2,-5.242767E-3,3.237829E-3,1.9061847E-2],"categories":[],"categories_nodes":[],"categories_segments":[],"categories_sizes":[],"default_left":[0,0,0,0,0,0,0,0,0,0,0,0,0],"id":39,"left_children":[1,3,5,-1,7,9,11,-1,-1,-1,-1,-1,-1],"loss_changes":[1.6399844E2,1.3488892E1,7.514033E1,0E0,9.521538E0,2.1489937E1,2.2848232E1,0E0,0E0,0E0,0E0,0E0,0E0],"parents":[2147483647,0,0,1,1,2,2,4,4,5,5,6,6],"right_children":[2,4,6,-1,8,10,12,-1,-1,-1,-1,-1,-1],"split_conditions":[1.4285715E-1,1E-1,2.1052632E-1,-3.13216E-2,3.846154E-1,1.1111111E-1,4E-1,-2.0885726E-2,4.1791894E-3,-1.996632E-2,-5.242767E-3,3.237829E-3,1.9061847E-2],"split_indices":[35,35,15,0,15,15,35,0,0,0,0,0,0],"split_type":[0,0,0,0,0,0,0,0,0,0,0,0,0],"sum_hessian":[3.3123945E3,1.1455852E3,2.1668093E3,4.7163885E2,6.739464E2,1.1398564E3,1.0269528E3,6.3692554E2,3.702084E1,3.61308E2,7.7854846E2,6.9290137E2,3.340514E2],"tree_param":{"num_deleted":"0","num_feature":"58","num_nodes":"13","size_leaf_vector":"1"}},{"base_weights":[2.3381807E-1,-7.5398065E-2,5.321541E-1,-2.6838705E-1,4.285751E-1,6.0885664E-2,6.491501E-1,-2.8668782E-2,-6.8584825E-3,-1.7112983E-2,2.702788E-2,-4.7771307E-3,2.3237916E-2,2.8813053E-2,4.40818E-2],"categories":[],"categories_nodes":[],"categories_segments":[],"categories_sizes":[],"default_left":[0,0,0,0,0,0,0,0,0,0,0,0,0,0,0],"id":40,"left_children":[1,3,5,7,9,11,13,-1,-1,-1,-1,-1,-1,-1,-1],"loss_changes":[3.5619122E2,1.862014E2,1.0790216E2,5.451821E1,4.765899E1,2.5820736E1,2.1566467E1,0E0,0E0,0E0,0E0,0E0,0E0,0E0,0E0],"parents":[2147483647,0,0,1,1,2,2,3,3,4,4,5,5,6,6],"right_children":[2,4,6,8,10,12,14,-1,-1,-1,-1,-1,-1,-1,-1],"split_conditions":[5.555556E-1,7E-1,4E-1,2.5E-1,1.4285715E-1,7.777778E-1,8.75E-1,-2.8668782E-2,-6.8584825E-3,-1.7112983E-2,2.702788E-2,-4.7771307E-3,2.3237916E-2,2.8813053E-2,4.40818E-2],"split_indices":[12,37,37,12,12,12,12,0,0,0,0,0,0,0,0],"split_type":[0,0,0,0,0,0,0,0,0,0,0,0,0,0,0],"sum_hessian":[3.8467886E3,1.8926194E3,1.9541692E3,1.3719329E3,5.206866E2,3.9167548E2,1.5624937E3,4.025618E2,9.6937103E2,6.343897E1,4.5724762E2,2.8782803E2,1.0384744E2,1.2160304E3,3.4646335E2],"tree_param":{"num_deleted":"0","num_feature":"58","num_nodes":"15","size_leaf_vector":"1"}},{"base_weights":[-8.687685E-2,-2.9123843E-1,3.2100418E-1,-4.6606782E-1,3.9874278E-2,-1.18102975E-1,5.8383304E-1,-2.910768E-2,-1.7790351E-2,-1.4415338E-2,1.1886756E-2,-3.0442704E-2,3.0931404E-3,2.995109E-2,-9.121436E-3],"categories":[],"categories_nodes":[],"categories_segments":[],"categories_sizes":[],"default_left":[0,0,0,0,0,0,0,0,0,0,0,0,0,0,0],"id":41,"left_children":[1,3,5,7,9,11,13,-1,-1,-1,-1,-1,-1,-1,-1],"loss_changes":[2.872335E2,1.3294998E2,1.335525E2,1.715039E1,5.2744473E1,3.9181618E1,9.494064E0,0E0,0E0,0E0,0E0,0E0,0E0,0E0,0E0],"parents":[2147483647,0,0,1,1,2,2,3,3,4,4,5,5,6,6],"right_children":[2,4,6,8,10,12,14,-1,-1,-1,-1,-1,-1,-1,-1],"split_conditions":[3.3333334E-1,3.75E-1,2.2222222E-1,1.25E-1,1.1111111E-1,1E-1,7.4E-1,-2.910768E-2,-1.7790351E-2,-1.4415338E-2,1.1886756E-2,-3.0442704E-2,3.0931404E-3,2.995109E-2,-9.121436E-3],"split_indices":[9,34,34,9,9,34,32,0,0,0,0,0,0,0,0],"split_type":[0,0,0,0,0,0,0,0,0,0,0,0,0,0,0],"sum_hessian":[3.4246816E3,2.283456E3,1.1412256E3,1.4917354E3,7.9172064E2,4.293757E2,7.1184985E2,7.058247E2,7.859107E2,2.960716E2,4.9564905E2,1.08814995E2,3.2056073E2,7.0015405E2,1.1695798E1],"tree_param":{"num_deleted":"0","num_feature":"58","num_nodes":"15","size_leaf_vector":"1"}},{"base_weights":[-1.7490746E-1,-4.7196582E-1,-1.5005673E-2,-3.1259757E-2,-3.769515E-1,-3.8210288E-1,1.3367322E-1,-2.362547E-2,-8.826121E-3,-3.059622E-2,-1.18706E-2,1.3888193E-3,1.833158E-2],"categories":[],"categories_nodes":[],"categories_segments":[],"categories_sizes":[],"default_left":[0,0,0,0,0,0,0,0,0,0,0,0,0],"id":42,"left_children":[1,3,5,-1,7,9,11,-1,-1,-1,-1,-1,-1],"loss_changes":[1.5657196E2,1.4438995E1,1.18080734E2,0E0,1.3286484E1,1.9281776E1,3.790316E1,0E0,0E0,0E0,0E0,0E0,0E0],"parents":[2147483647,0,0,1,1,2,2,4,4,5,5,6,6],"right_children":[2,4,6,-1,8,10,12,-1,-1,-1,-1,-1,-1],"split_conditions":[2E-1,1E-1,1.4285715E-1,-3.1259757E-2,2.5E-1,1E-1,3.3333334E-1,-2.362547E-2,-8.826121E-3,-3.059622E-2,-1.18706E-2,1.3888193E-3,1.833158E-2],"split_indices":[10,10,35,0,35,35,10,0,0,0,0,0,0],"split_type":[0,0,0,0,0,0,0,0,0,0,0,0,0],"sum_hessian":[3.2877307E3,1.1436301E3,2.1441006E3,4.1636304E2,7.2726715E2,6.135381E2,1.5305626E3,4.8328027E2,2.4398686E2,2.245614E2,3.8897665E2,1.0599357E3,4.7062692E2],"tree_param":{"num_deleted":"0","num_feature":"58","num_nodes":"13","size_leaf_vector":"1"}},{"base_weights":[2.182235E-1,-1.9459349E-1,4.19564E-1,-4.1823703E-1,1.2702735E-1,9.214681E-2,6.0395366E-1,-2.8272942E-2,-1.5036779E-2,-2.0507822E-2,1.4627868E-2,-3.416319E-3,2.7654728E-2,2.5042681E-2,3.746338E-2],"categories":[],"categories_nodes":[],"categories_segments":[],"categories_sizes":[],"default_left":[0,0,0,0,0,0,0,0,0,0,0,0,0,0,0],"id":43,"left_children":[1,3,5,7,9,11,13,-1,-1,-1,-1,-1,-1,-1,-1],"loss_changes":[3.1712228E2,9.075944E1,1.540657E2,1.1139282E1,4.7631924E1,6.950327E1,2.076709E1,0E0,0E0,0E0,0E0,0E0,0E0,0E0,0E0],"parents":[2147483647,0,0,1,1,2,2,3,3,4,4,5,5,6,6],"right_children":[2,4,6,8,10,12,14,-1,-1,-1,-1,-1,-1,-1,-1],"split_conditions":[4.4444445E-1,5.555556E-1,5E-1,2.5E-1,2E-1,7.5E-1,7.5E-1,-2.8272942E-2,-1.5036779E-2,-2.0507822E-2,1.4627868E-2,-3.416319E-3,2.7654728E-2,2.5042681E-2,3.746338E-2],"split_indices":[12,33,33,12,12,12,42,0,0,0,0,0,0,0,0],"split_type":[0,0,0,0,0,0,0,0,0,0,0,0,0,0,0],"sum_hessian":[3.7955596E3,1.2444159E3,2.5511438E3,7.3223914E2,5.1217676E2,9.245086E2,1.6266351E3,3.0809372E2,4.2414545E2,1.17166275E2,3.9501047E2,6.9208545E2,2.3242319E2,9.775392E2,6.490959E2],"tree_param":{"num_deleted":"0","num_feature":"58","num_nodes":"15","size_leaf_vector":"1"}},{"base_weights":[-8.6354494E-2,-2.9048634E-1,3.193403E-1,-4.076849E-1,1.7954357E-1,-3.295023E-1,4.8591858E-1,-2.8138647E-2,-1.3656137E-2,-8.788025E-3,1.8762466E-2,-3.0040879E-2,-3.7900414E-3,1.829768E-2,3.6840253E-2],"categories":[],"categories_nodes":[],"categories_segments":[],"categories_sizes":[],"default_left":[0,0,0,0,0,0,0,0,0,0,0,0,0,0,0],"id":44,"left_children":[1,3,5,7,9,11,13,-1,-1,-1,-1,-1,-1,-1,-1],"loss_changes":[2.8086185E2,1.248963E2,1.2441075E2,3.6177063E1,3.2422363E1,1.5932245E1,2.4637482E1,0E0,0E0,0E0,0E0,0E0,0E0,0E0,0E0],"parents":[2147483647,0,0,1,1,2,2,3,3,4,4,5,5,6,6],"right_children":[2,4,6,8,10,12,14,-1,-1,-1,-1,-1,-1,-1,-1],"split_conditions":[3.3333334E-1,5E-1,1.4285715E-1,1.25E-1,1.25E-1,1E-1,6.25E-1,-2.8138647E-2,-1.3656137E-2,-8.788025E-3,1.8762466E-2,-3.0040879E-2,-3.7900414E-3,1.829768E-2,3.6840253E-2],"split_indices":[9,34,34,9,9,34,9,0,0,0,0,0,0,0,0],"split_type":[0,0,0,0,0,0,0,0,0,0,0,0,0,0,0],"sum_hessian":[3.3702266E3,2.2439746E3,1.1262521E3,1.7971858E3,4.467888E2,2.2807841E2,8.9817365E2,8.20131E2,9.7705475E2,1.5905086E2,2.8773795E2,1.03601776E2,1.2447663E2,6.2426074E2,2.739129E2],"tree_param":{"num_deleted":"0","num_feature":"58","num_nodes":"15","size_leaf_vector":"1"}},{"base_weights":[-1.7532218E-1,-3.3655626E-1,1.0919276E-2,-5.559856E-1,-2.600008E-1,-2.6798424E-1,1.3856168E-1,-2.8084083E-2,1.7881437E-4,-1.7913926E-2,-4.5844456E-3,-1.9990547E-2,-6.5757516E-3,1.1653732E-2,-1.6005153E-3],"categories":[],"categories_nodes":[],"categories_segments":[],"categories_sizes":[],"default_left":[0,0,0,0,0,0,0,0,0,0,0,0,0,0,0],"id":45,"left_children":[1,3,5,7,9,11,13,-1,-1,-1,-1,-1,-1,-1,-1],"loss_changes":[9.7909485E1,2.79059E1,5.4556774E1,1.4324951E0,2.1408867E1,8.132702E0,1.701448E1,0E0,0E0,0E0,0E0,0E0,0E0,0E0,0E0],"parents":[2147483647,0,0,1,1,2,2,3,3,4,4,5,5,6,6],"right_children":[2,4,6,8,10,12,14,-1,-1,-1,-1,-1,-1,-1,-1],"split_conditions":[2.1052632E-1,7.692308E-2,1.764706E-1,2.4E-1,2.3529412E-1,1.1111111E-1,5.555556E-1,-2.8084083E-2,1.7881437E-4,-1.7913926E-2,-4.5844456E-3,-1.9990547E-2,-6.5757516E-3,1.1653732E-2,-1.6005153E-3],"split_indices":[40,40,15,55,15,15,12,0,0,0,0,0,0,0,0],"split_type":[0,0,0,0,0,0,0,0,0,0,0,0,0,0,0],"sum_hessian":[3.2493318E3,1.7372651E3,1.5120667E3,4.3313983E2,1.3041254E3,4.7128848E2,1.0407782E3,4.2873767E2,4.402169E0,8.162363E2,4.8788898E2,2.2990646E2,2.4138202E2,6.67343E2,3.734352E2],"tree_param":{"num_deleted":"0","num_feature":"58","num_nodes":"15","size_leaf_vector":"1"}},{"base_weights":[2.1658498E-1,-7.750622E-2,4.944275E-1,1.9747034E-1,-3.248542E-1,3.3944497E-1,7.0514613E-1,-2.1466358E-2,1.5664695E-2,-2.5383512E-2,-8.970018E-3,9.656396E-3,3.0213693E-2,3.0943045E-2,4.017242E-2],"categories":[],"categories_nodes":[],"categories_segments":[],"categories_sizes":[],"default_left":[0,0,0,0,0,0,0,0,0,0,0,0,0,0,0],"id":46,"left_children":[1,3,5,7,9,11,13,-1,-1,-1,-1,-1,-1,-1,-1],"loss_changes":[3.1296057E2,1.2762561E2,6.188968E1,6.598216E1,2.532582E1,4.3529144E1,2.0247498E0,0E0,0E0,0E0,0E0,0E0,0E0,0E0,0E0],"parents":[2147483647,0,0,1,1,2,2,3,3,4,4,5,5,6,6],"right_children":[2,4,6,8,10,12,14,-1,-1,-1,-1,-1,-1,-1,-1],"split_conditions":[5.555556E-1,-5E-1,6.216216E-1,2E-1,3.3333334E-1,7.5E-1,8.6206895E-1,-2.1466358E-2,1.5664695E-2,-2.5383512E-2,-8.970018E-3,9.656396E-3,3.0213693E-2,3.0943045E-2,4.017242E-2],"split_indices":[12,36,57,12,12,12,47,0,0,0,0,0,0,0,0],"split_type":[0,0,0,0,0,0,0,0,0,0,0,0,0,0,0],"sum_hessian":[3.8153997E3,1.8570046E3,1.9583949E3,8.803437E2,9.7666095E2,1.1434799E3,8.14915E2,1.3308205E2,7.4726166E2,4.2171686E2,5.549441E2,7.4768115E2,3.9579877E2,4.7283597E2,3.4207898E2],"tree_param":{"num_deleted":"0","num_feature":"58","num_nodes":"15","size_leaf_vector":"1"}},{"base_weights":[-8.085943E-2,-3.6771128E-1,1.9001864E-1,-4.8248532E-1,-5.074257E-2,-2.1629195E-1,4.4093716E-1,-2.8063763E-2,-1.7591782E-2,-2.9712042E-2,3.0072571E-3,-3.0607566E-2,-2.6812404E-3,1.4208828E-2,3.2076593E-2],"categories":[],"categories_nodes":[],"categories_segments":[],"categories_sizes":[],"default_left":[0,0,0,0,0,0,0,0,0,0,0,0,0,0,0],"id":47,"left_children":[1,3,5,7,9,11,13,-1,-1,-1,-1,-1,-1,-1,-1],"loss_changes":[2.632183E2,5.9574432E1,1.7878142E2,1.0439728E1,2.737488E1,4.2984787E1,3.218872E1,0E0,0E0,0E0,0E0,0E0,0E0,0E0,0E0],"parents":[2147483647,0,0,1,1,2,2,3,3,4,4,5,5,6,6],"right_children":[2,4,6,8,10,12,14,-1,-1,-1,-1,-1,-1,-1,-1],"split_conditions":[2.2222222E-1,2E-1,2.2222222E-1,1.1111111E-1,1E-1,1E-1,5E-1,-2.8063763E-2,-1.7591782E-2,-2.9712042E-2,3.0072571E-3,-3.0607566E-2,-2.6812404E-3,1.4208828E-2,3.2076593E-2],"split_indices":[9,36,34,9,9,34,9,0,0,0,0,0,0,0,0],"split_type":[0,0,0,0,0,0,0,0,0,0,0,0,0,0,0],"sum_hessian":[3.3685488E3,1.6342994E3,1.7342494E3,1.1960052E3,4.3829422E2,6.6263275E2,1.0716166E3,7.255145E2,4.7049066E2,6.6883934E1,3.7141028E2,1.8493971E2,4.7769305E2,6.150975E2,4.5651913E2],"tree_param":{"num_deleted":"0","num_feature":"58","num_nodes":"15","size_leaf_vector":"1"}},{"base_weights":[-1.6437197E-1,-4.6342707E-1,-7.975995E-3,-3.0745963E-2,-3.6742315E-1,-3.6768535E-1,1.3249357E-1,-2.3267793E-2,-8.461403E-3,-3.0042037E-2,-1.113879E-2,3.6922977E-3,2.6090726E-2],"categories":[],"categories_nodes":[],"categories_segments":[],"categories_sizes":[],"default_left":[0,0,0,0,0,0,0,0,0,0,0,0,0],"id":48,"left_children":[1,3,5,-1,7,9,11,-1,-1,-1,-1,-1,-1],"loss_changes":[1.5123087E2,1.389035E1,1.0830462E2,0E0,1.2887245E1,1.899768E1,3.4820534E1,0E0,0E0,0E0,0E0,0E0,0E0],"parents":[2147483647,0,0,1,1,2,2,4,4,5,5,6,6],"right_children":[2,4,6,-1,8,10,12,-1,-1,-1,-1,-1,-1],"split_conditions":[2E-1,1E-1,1.4285715E-1,-3.0745963E-2,2.5E-1,1E-1,4.2857143E-1,-2.3267793E-2,-8.461403E-3,-3.0042037E-2,-1.113879E-2,3.6922977E-3,2.6090726E-2],"split_indices":[10,10,35,0,35,35,35,0,0,0,0,0,0],"split_type":[0,0,0,0,0,0,0,0,0,0,0,0,0],"sum_hessian":[3.2242217E3,1.1004144E3,2.1238071E3,4.0588492E2,6.9452954E2,5.919044E2,1.5319027E3,4.5581927E2,2.3871028E2,2.1481306E2,3.7709134E2,1.3416868E3,1.9021596E2],"tree_param":{"num_deleted":"0","num_feature":"58","num_nodes":"13","size_leaf_vector":"1"}},{"base_weights":[2.1743785E-1,-1.4765458E-1,4.2976758E-1,-3.6274981E-1,1.3144562E-1,-2.819398E-1,5.2245164E-1,-2.600016E-2,-1.1128632E-2,-1.9444024E-2,1.031319E-2,-2.0514159E-2,2.0741064E-2,1.9858284E-2,3.5429444E-2],"categories":[],"categories_nodes":[],"categories_segments":[],"categories_sizes":[],"default_left":[0,0,0,0,0,0,0,0,0,0,0,0,0,0,0],"id":49,"left_children":[1,3,5,7,9,11,13,-1,-1,-1,-1,-1,-1,-1,-1],"loss_changes":[2.9397626E2,8.445864E1,1.5946686E2,1.6316628E1,2.479119E1,2.6961807E1,4.668744E1,0E0,0E0,0E0,0E0,0E0,0E0,0E0,0E0],"parents":[2147483647,0,0,1,1,2,2,3,3,4,4,5,5,6,6],"right_children":[2,4,6,8,10,12,14,-1,-1,-1,-1,-1,-1,-1,-1],"split_conditions":[4.2857143E-1,6E-1,3E-1,4E-1,2E-1,8.5714287E-1,7.1428573E-1,-2.600016E-2,-1.1128632E-2,-1.9444024E-2,1.031319E-2,-2.0514159E-2,2.0741064E-2,1.9858284E-2,3.5429444E-2],"split_indices":[37,12,12,12,37,33,37,0,0,0,0,0,0,0,0],"split_type":[0,0,0,0,0,0,0,0,0,0,0,0,0,0,0],"sum_hessian":[3.7740789E3,1.3889247E3,2.3851543E3,7.82712E2,6.0621277E2,2.7247083E2,2.1126833E3,3.5611707E2,4.2659488E2,7.0932556E1,5.352802E2,2.3356055E2,3.8910286E1,1.2814783E3,8.3120514E2],"tree_param":{"num_deleted":"0","num_feature":"58","num_nodes":"15","size_leaf_vector":"1"}},{"base_weights":[-7.3671825E-2,-3.49073E-1,1.8262973E-1,-4.5681295E-1,-6.484425E-2,-3.8388488E-1,3.060456E-1,-2.7371628E-2,-1.5199191E-2,-2.9291347E-2,1.8445784E-3,-2.1144796E-2,2.3617597E-2,7.468139E-3,2.527276E-2],"categories":[],"categories_nodes":[],"categories_segments":[],"categories_sizes":[],"default_left":[0,0,0,0,0,0,0,0,0,0,0,0,0,0,0],"id":50,"left_children":[1,3,5,7,9,11,13,-1,-1,-1,-1,-1,-1,-1,-1],"loss_changes":[2.361755E2,4.90663E1,1.2247725E2,1.450116E1,2.4318E1,1.2512287E1,4.39292E1,0E0,0E0,0E0,0E0,0E0,0E0,0E0,0E0],"parents":[2147483647,0,0,1,1,2,2,3,3,4,4,5,5,6,6],"right_children":[2,4,6,8,10,12,14,-1,-1,-1,-1,-1,-1,-1,-1],"split_conditions":[2.2222222E-1,2E-1,1.1764706E-1,1.25E-1,1E-1,1E0,1E-1,-2.7371628E-2,-1.5199191E-2,-2.9291347E-2,1.8445784E-3,-2.1144796E-2,2.3617597E-2,7.468139E-3,2.527276E-2],"split_indices":[9,36,39,9,9,9,36,0,0,0,0,0,0,0,0],"split_type":[0,0,0,0,0,0,0,0,0,0,0,0,0,0,0],"sum_hessian":[3.3269055E3,1.6019541E3,1.7249514E3,1.157224E3,4.447301E2,3.0478674E2,1.4201647E3,7.102583E2,4.4696567E2,6.488336E1,3.7984674E2,2.963459E2,8.440833E0,8.050781E2,6.150866E2],"tree_param":{"num_deleted":"0","num_feature":"58","num_nodes":"15","size_leaf_vector":"1"}},{"base_weights":[-1.5925577E-1,-4.5878547E-1,-1.0614032E-2,-3.0223383E-2,-3.5422456E-1,-3.6429486E-1,1.2879181E-1,-1.9379439E-2,1.4321451E-2,-3.019745E-2,-1.183006E-2,1.8699587E-3,1.7476186E-2],"categories":[],"categories_nodes":[],"categories_segments":[],"categories_sizes":[],"default_left":[0,0,0,0,0,0,0,0,0,0,0,0,0],"id":51,"left_children":[1,3,5,-1,7,9,11,-1,-1,-1,-1,-1,-1],"loss_changes":[1.433926E2,1.4131882E1,1.0713898E2,0E0,1.4920082E1,1.7369057E1,3.1323307E1,0E0,0E0,0E0,0E0,0E0,0E0],"parents":[2147483647,0,0,1,1,2,2,4,4,5,5,6,6],"right_children":[2,4,6,-1,8,10,12,-1,-1,-1,-1,-1,-1],"split_conditions":[1.4285715E-1,1E-1,1.4285715E-1,-3.0223383E-2,4.2857143E-1,1E-1,4E-1,-1.9379439E-2,1.4321451E-2,-3.019745E-2,-1.183006E-2,1.8699587E-3,1.7476186E-2],"split_indices":[35,35,10,0,10,10,10,0,0,0,0,0,0],"split_type":[0,0,0,0,0,0,0,0,0,0,0,0,0],"sum_hessian":[3.211762E3,1.0583014E3,2.1534607E3,4.2222104E2,6.3608044E2,6.042672E2,1.5491934E3,6.083487E2,2.7731728E1,1.9708443E2,4.0718277E2,1.1038469E3,4.4534647E2],"tree_param":{"num_deleted":"0","num_feature":"58","num_nodes":"13","size_leaf_vector":"1"}},{"base_weights":[2.0091797E-1,-1.5351422E-1,4.087969E-1,-3.7089998E-1,1.2364304E-1,-2.6945964E-1,4.9859354E-1,-2.6706493E-2,-1.2462757E-2,-4.6257442E-4,2.1495624E-2,-1.9860206E-2,2.154619E-2,1.8804645E-2,3.4167524E-2],"categories":[],"categories_nodes":[],"categories_segments":[],"categories_sizes":[],"default_left":[0,0,0,0,0,0,0,0,0,0,0,0,0,0,0],"id":52,"left_children":[1,3,5,7,9,11,13,-1,-1,-1,-1,-1,-1,-1,-1],"loss_changes":[2.7864456E2,8.494295E1,1.4636624E2,1.4322243E1,2.5432491E1,2.7199894E1,4.510034E1,0E0,0E0,0E0,0E0,0E0,0E0,0E0,0E0],"parents":[2147483647,0,0,1,1,2,2,3,3,4,4,5,5,6,6],"right_children":[2,4,6,8,10,12,14,-1,-1,-1,-1,-1,-1,-1,-1],"split_conditions":[4.2857143E-1,6E-1,3E-1,2.857143E-1,8E-1,8.75E-1,7.1428573E-1,-2.6706493E-2,-1.2462757E-2,-4.6257442E-4,2.1495624E-2,-1.9860206E-2,2.154619E-2,1.8804645E-2,3.4167524E-2],"split_indices":[37,12,12,37,12,37,37,0,0,0,0,0,0,0,0],"split_type":[0,0,0,0,0,0,0,0,0,0,0,0,0,0,0],"sum_hessian":[3.7633547E3,1.392229E3,2.3711257E3,7.7835284E2,6.1387616E2,2.7488E2,2.0962458E3,3.1788626E2,4.6046655E2,4.3487558E2,1.790006E2,2.3613885E2,3.874113E1,1.2787462E3,8.174996E2],"tree_param":{"num_deleted":"0","num_feature":"58","num_nodes":"15","size_leaf_vector":"1"}},{"base_weights":[-7.336017E-2,-2.635977E-1,2.8613394E-1,-4.030537E-1,3.5909466E-2,-8.421749E-2,4.7386828E-1,-2.7633075E-2,-1.3891521E-2,-2.9377505E-2,5.878361E-3,-2.6937589E-2,3.3296999E-3,1.8153084E-2,3.169435E-2],"categories":[],"categories_nodes":[],"categories_segments":[],"categories_sizes":[],"default_left":[0,0,0,0,0,0,0,0,0,0,0,0,0,0,0],"id":53,"left_children":[1,3,5,7,9,11,13,-1,-1,-1,-1,-1,-1,-1,-1],"loss_changes":[2.273441E2,9.085991E1,8.0450325E1,2.624205E1,3.6285976E1,2.749019E1,1.1272888E1,0E0,0E0,0E0,0E0,0E0,0E0,0E0,0E0],"parents":[2147483647,0,0,1,1,2,2,3,3,4,4,5,5,6,6],"right_children":[2,4,6,8,10,12,14,-1,-1,-1,-1,-1,-1,-1,-1],"split_conditions":[3.3333334E-1,1E-1,2.173913E-1,1.25E-1,1E-1,3.448276E-2,4E-1,-2.7633075E-2,-1.3891521E-2,-2.9377505E-2,5.878361E-3,-2.6937589E-2,3.3296999E-3,1.8153084E-2,3.169435E-2],"split_indices":[9,36,44,9,9,44,36,0,0,0,0,0,0,0,0],"split_type":[0,0,0,0,0,0,0,0,0,0,0,0,0,0,0],"sum_hessian":[3.3032366E3,2.1618784E3,1.1413579E3,1.4727036E3,6.891749E2,3.8579596E2,7.55562E2,6.5546594E2,8.172377E2,7.263692E1,6.16538E2,8.9705864E1,2.9609012E2,4.657425E2,2.898195E2],"tree_param":{"num_deleted":"0","num_feature":"58","num_nodes":"15","size_leaf_vector":"1"}},{"base_weights":[-1.6049273E-1,-4.5068458E-1,-1.4619592E-2,-2.9969139E-2,-3.4279564E-1,-2.4255484E-1,1.0123299E-1,-1.8774945E-2,7.178684E-3,-2.4221903E-2,-8.317136E-3,7.0938043E-4,1.477124E-2],"categories":[],"categories_nodes":[],"categories_segments":[],"categories_sizes":[],"default_left":[0,0,0,0,0,0,0,0,0,0,0,0,0],"id":54,"left_children":[1,3,5,-1,7,9,11,-1,-1,-1,-1,-1,-1],"loss_changes":[1.3439789E2,1.4987122E1,5.633927E1,0E0,1.0702415E1,1.2444447E1,2.38838E1,0E0,0E0,0E0,0E0,0E0,0E0],"parents":[2147483647,0,0,1,1,2,2,4,4,5,5,6,6],"right_children":[2,4,6,-1,8,10,12,-1,-1,-1,-1,-1,-1],"split_conditions":[1.6666667E-1,1E-1,1.8181819E-1,-2.9969139E-2,3.846154E-1,8.3333336E-2,4E-1,-1.8774945E-2,7.178684E-3,-2.4221903E-2,-8.317136E-3,7.0938043E-4,1.477124E-2],"split_indices":[35,35,15,0,15,15,35,0,0,0,0,0,0],"split_type":[0,0,0,0,0,0,0,0,0,0,0,0,0],"sum_hessian":[3.1664707E3,1.0522627E3,2.114208E3,4.2329703E2,6.2896564E2,7.0877856E2,1.4054296E3,5.914747E2,3.7490948E1,1.5698207E2,5.517965E2,9.778461E2,4.2758344E2],"tree_param":{"num_deleted":"0","num_feature":"58","num_nodes":"13","size_leaf_vector":"1"}},{"base_weights":[1.895837E-1,-8.059001E-2,3.9388245E-1,-2.0170932E-1,3.9586022E-1,1.756001E-1,5.852063E-1,-2.3353389E-2,-3.3682405E-3,-1.4483911E-2,2.4420824E-2,-8.302955E-3,1.3304444E-2,2.5625506E-2,3.694245E-2],"categories":[],"categories_nodes":[],"categories_segments":[],"categories_sizes":[],"default_left":[0,0,0,0,0,0,0,0,0,0,0,0,0,0,0],"id":55,"left_children":[1,3,5,7,9,11,13,-1,-1,-1,-1,-1,-1,-1,-1],"loss_changes":[2.0826547E2,9.4889565E1,8.863461E1,4.626615E1,2.2598118E1,3.1887173E1,8.9444275E0,0E0,0E0,0E0,0E0,0E0,0E0,0E0,0E0],"parents":[2147483647,0,0,1,1,2,2,3,3,4,4,5,5,6,6],"right_children":[2,4,6,8,10,12,14,-1,-1,-1,-1,-1,-1,-1,-1],"split_conditions":[5.3333336E-1,7.5E-1,5.5E-1,3E-1,1.3333334E-1,2.631579E-1,8.5714287E-1,-2.3353389E-2,-3.3682405E-3,-1.4483911E-2,2.4420824E-2,-8.302955E-3,1.3304444E-2,2.5625506E-2,3.694245E-2],"split_indices":[17,42,42,17,22,42,42,0,0,0,0,0,0,0,0],"split_type":[0,0,0,0,0,0,0,0,0,0,0,0,0,0,0],"sum_hessian":[3.7574373E3,1.6204877E3,2.1369495E3,1.2966343E3,3.238534E2,1.0071104E3,1.1298391E3,4.2748856E2,8.691457E2,3.598975E1,2.8786365E2,2.0913316E2,7.9797723E2,7.963857E2,3.3345346E2],"tree_param":{"num_deleted":"0","num_feature":"58","num_nodes":"15","size_leaf_vector":"1"}},{"base_weights":[-7.284508E-2,-3.86508E-1,1.5452018E-1,-4.2872792E-1,4.2863998E-1,-1.6491592E-1,4.0785038E-1,-3.0174702E-2,-1.6975889E-2,-1.4855337E-2,2.7700767E-2,-3.0476985E-2,-3.5549346E-3,1.3357261E-2,2.9227799E-2],"categories":[],"categories_nodes":[],"categories_segments":[],"categories_sizes":[],"default_left":[0,0,0,0,0,0,0,0,0,0,0,0,0,0,0],"id":56,"left_children":[1,3,5,7,9,11,13,-1,-1,-1,-1,-1,-1,-1,-1],"loss_changes":[2.353022E2,4.953453E1,1.5565143E2,1.857254E1,8.310892E0,3.5197117E1,2.5066315E1,0E0,0E0,0E0,0E0,0E0,0E0,0E0,0E0],"parents":[2147483647,0,0,1,1,2,2,3,3,4,4,5,5,6,6],"right_children":[2,4,6,8,10,12,14,-1,-1,-1,-1,-1,-1,-1,-1],"split_conditions":[2.2222222E-1,7.1428573E-1,2.2222222E-1,1E-1,1E-1,1E-1,5E-1,-3.0174702E-2,-1.6975889E-2,-1.4855337E-2,2.7700767E-2,-3.0476985E-2,-3.5549346E-3,1.3357261E-2,2.9227799E-2],"split_indices":[34,9,9,34,34,9,9,0,0,0,0,0,0,0,0],"split_type":[0,0,0,0,0,0,0,0,0,0,0,0,0,0,0],"sum_hessian":[3.2810542E3,1.3759105E3,1.9051437E3,1.3126626E3,6.3247852E1,8.441743E2,1.0609695E3,4.24129E2,8.885336E2,7.2990785E0,5.5948776E1,1.3750972E2,7.0666455E2,6.0463525E2,4.5633417E2],"tree_param":{"num_deleted":"0","num_feature":"58","num_nodes":"15","size_leaf_vector":"1"}},{"base_weights":[-1.4936346E-1,-4.3596947E-1,-1.2612473E-2,-2.9709807E-2,-3.248012E-1,-2.301314E-1,9.915629E-2,-1.7669624E-2,3.991691E-3,-2.363914E-2,-7.80139E-3,2.1539384E-4,1.5411136E-2],"categories":[],"categories_nodes":[],"categories_segments":[],"categories_sizes":[],"default_left":[0,0,0,0,0,0,0,0,0,0,0,0,0],"id":57,"left_children":[1,3,5,-1,7,9,11,-1,-1,-1,-1,-1,-1],"loss_changes":[1.2287967E2,1.5886261E1,5.210291E1,0E0,7.419731E0,1.2339302E1,2.8074823E1,0E0,0E0,0E0,0E0,0E0,0E0],"parents":[2147483647,0,0,1,1,2,2,4,4,5,5,6,6],"right_children":[2,4,6,-1,8,10,12,-1,-1,-1,-1,-1,-1],"split_conditions":[1.4285715E-1,1E-1,1.875E-1,-2.9709807E-2,3.6842105E-1,8.3333336E-2,4E-1,-1.7669624E-2,3.991691E-3,-2.363914E-2,-7.80139E-3,2.1539384E-4,1.5411136E-2],"split_indices":[35,35,15,0,15,15,35,0,0,0,0,0,0],"split_type":[0,0,0,0,0,0,0,0,0,0,0,0,0],"sum_hessian":[3.1265962E3,1.00287213E3,2.123724E3,3.9591412E2,6.06958E2,7.172524E2,1.4064717E3,5.6808386E2,3.8874096E1,1.5521207E2,5.6204034E2,9.745485E2,4.3192316E2],"tree_param":{"num_deleted":"0","num_feature":"58","num_nodes":"13","size_leaf_vector":"1"}},{"base_weights":[1.9434434E-1,-6.593021E-2,4.3719214E-1,-1.892807E-1,4.1373497E-1,2.9527682E-1,6.248704E-1,-2.5075113E-2,-3.7978352E-3,-1.5164903E-2,2.5945378E-2,8.023231E-3,2.6812652E-2,2.7218169E-2,3.652021E-2],"categories":[],"categories_nodes":[],"categories_segments":[],"categories_sizes":[],"default_left":[0,0,0,0,0,0,0,0,0,0,0,0,0,0,0],"id":58,"left_children":[1,3,5,7,9,11,13,-1,-1,-1,-1,-1,-1,-1,-1],"loss_changes":[2.3790419E2,1.0865894E2,4.998761E1,5.1176273E1,2.9935959E1,3.575511E1,3.0670776E0,0E0,0E0,0E0,0E0,0E0,0E0,0E0,0E0],"parents":[2147483647,0,0,1,1,2,2,3,3,4,4,5,5,6,6],"right_children":[2,4,6,8,10,12,14,-1,-1,-1,-1,-1,-1,-1,-1],"split_conditions":[5.555556E-1,7.5E-1,6.1538464E-1,2.5E-1,1.4285715E-1,7.1428573E-1,8.6206895E-1,-2.5075113E-2,-3.7978352E-3,-1.5164903E-2,2.5945378E-2,8.023231E-3,2.6812652E-2,2.7218169E-2,3.652021E-2],"split_indices":[12,47,47,12,12,12,47,0,0,0,0,0,0,0,0],"split_type":[0,0,0,0,0,0,0,0,0,0,0,0,0,0,0],"sum_hessian":[3.7493235E3,1.8132451E3,1.9360782E3,1.4471505E3,3.6609467E2,1.1171011E3,8.189772E2,3.7625836E2,1.0708921E3,4.4419373E1,3.216753E2,7.2702936E2,3.9007178E2,4.995072E2,3.1946997E2],"tree_param":{"num_deleted":"0","num_feature":"58","num_nodes":"15","size_leaf_vector":"1"}},{"base_weights":[-6.470427E-2,-3.6483857E-1,1.5253456E-1,-4.0983397E-1,4.6320942E-1,-3.535947E-1,3.0412334E-1,-2.9907444E-2,-1.574124E-2,-1.3979417E-2,2.865834E-2,-3.0131018E-2,-1.1432472E-2,6.0882014E-3,2.4339335E-2],"categories":[],"categories_nodes":[],"categories_segments":[],"categories_sizes":[],"default_left":[0,0,0,0,0,0,0,0,0,0,0,0,0,0,0],"id":59,"left_children":[1,3,5,7,9,11,13,-1,-1,-1,-1,-1,-1,-1,-1],"loss_changes":[2.1402582E2,5.322827E1,1.4733757E2,2.1590256E1,7.7852E0,1.2436813E1,4.8452103E1,0E0,0E0,0E0,0E0,0E0,0E0,0E0,0E0],"parents":[2147483647,0,0,1,1,2,2,3,3,4,4,5,5,6,6],"right_children":[2,4,6,8,10,12,14,-1,-1,-1,-1,-1,-1,-1,-1],"split_conditions":[2.2222222E-1,7.1428573E-1,1.25E-1,1E-1,3.5714287E-2,1E-1,3.3333334E-1,-2.9907444E-2,-1.574124E-2,-1.3979417E-2,2.865834E-2,-3.0131018E-2,-1.1432472E-2,6.0882014E-3,2.4339335E-2],"split_indices":[34,9,9,34,44,9,9,0,0,0,0,0,0,0,0],"split_type":[0,0,0,0,0,0,0,0,0,0,0,0,0,0,0],"sum_hessian":[3.2640278E3,1.3676736E3,1.8963542E3,1.301976E3,6.5697655E1,4.3399448E2,1.4623597E3,4.188429E2,8.831331E2,6.482087E0,5.9215565E1,1.3222633E2,3.0176813E2,7.4012885E2,7.2223096E2],"tree_param":{"num_deleted":"0","num_feature":"58","num_nodes":"15","size_leaf_vector":"1"}},{"base_weights":[-1.3485736E-1,-4.383666E-1,1.6385488E-2,-2.9842256E-2,-3.412235E-1,6.56025E-2,-4.9927017E-1,-1.8731846E-2,3.350321E-3,5.824461E-4,2.16496E-2,-2.54206E-2,3.1142326E-3],"categories":[],"categories_nodes":[],"categories_segments":[],"categories_sizes":[],"default_left":[0,0,0,0,0,0,0,0,0,0,0,0,0],"id":60,"left_children":[1,3,5,-1,7,9,11,-1,-1,-1,-1,-1,-1],"loss_changes":[1.4270216E2,1.3878128E1,5.320266E1,0E0,9.3116E0,3.7823997E1,1.2545242E0,0E0,0E0,0E0,0E0,0E0,0E0],"parents":[2147483647,0,0,1,1,2,2,4,4,5,5,6,6],"right_children":[2,4,6,-1,8,10,12,-1,-1,-1,-1,-1,-1],"split_conditions":[2E-1,1E-1,8.75E-1,-2.9842256E-2,3.6363637E-1,4.4444445E-1,6E-1,-1.8731846E-2,3.350321E-3,5.824461E-4,2.16496E-2,-2.54206E-2,3.1142326E-3],"split_indices":[10,10,37,0,40,10,10,0,0,0,0,0,0],"split_type":[0,0,0,0,0,0,0,0,0,0,0,0,0],"sum_hessian":[3.0971704E3,1.0237526E3,2.0734177E3,3.695051E2,6.542475E2,1.9007294E3,1.7268831E2,6.0550977E2,4.8737717E1,1.6663342E3,2.3439517E2,1.7085324E2,1.8350655E0],"tree_param":{"num_deleted":"0","num_feature":"58","num_nodes":"13","size_leaf_vector":"1"}},{"base_weights":[1.8810725E-1,-7.425883E-2,4.303177E-1,-2.2782883E-1,3.4005564E-1,1.2732433E-1,5.6897897E-1,-2.6524741E-2,-5.7008243E-3,-2.6394803E-2,2.0583162E-2,-1.9298792E-2,1.024916E-2,1.9644128E-2,3.1387623E-2],"categories":[],"categories_nodes":[],"categories_segments":[],"categories_sizes":[],"default_left":[0,0,0,0,0,0,0,0,0,0,0,0,0,0,0],"id":61,"left_children":[1,3,5,7,9,11,13,-1,-1,-1,-1,-1,-1,-1,-1],"loss_changes":[2.3614375E2,1.14659195E2,8.040674E1,4.4584686E1,3.250604E1,2.5472378E1,1.12152405E1,0E0,0E0,0E0,0E0,0E0,0E0,0E0,0E0],"parents":[2147483647,0,0,1,1,2,2,3,3,4,4,5,5,6,6],"right_children":[2,4,6,8,10,12,14,-1,-1,-1,-1,-1,-1,-1,-1],"split_conditions":[5.555556E-1,7E-1,4.2857143E-1,2.5E-1,1E-1,2E-1,6E-1,-2.6524741E-2,-5.7008243E-3,-2.6394803E-2,2.0583162E-2,-1.9298792E-2,1.024916E-2,1.9644128E-2,3.1387623E-2],"split_indices":[12,37,37,12,12,37,37,0,0,0,0,0,0,0,0],"split_type":[0,0,0,0,0,0,0,0,0,0,0,0,0,0,0],"sum_hessian":[3.7009736E3,1.7798965E3,1.9210771E3,1.3018524E3,4.7804416E2,6.0916113E2,1.311916E3,3.457564E2,9.5609595E2,3.1577253E1,4.464669E2,7.483361E1,5.343275E2,3.4752203E2,9.64394E2],"tree_param":{"num_deleted":"0","num_feature":"58","num_nodes":"15","size_leaf_vector":"1"}},{"base_weights":[-6.735309E-2,-3.6673635E-1,1.4427045E-1,5.3955156E-2,-4.4991925E-1,-1.480587E-1,3.696625E-1,-2.7485821E-2,1.2880722E-2,-2.9389275E-2,-1.8858297E-2,-2.9887294E-2,-2.751534E-3,1.1610342E-2,2.7233666E-2],"categories":[],"categories_nodes":[],"categories_segments":[],"categories_sizes":[],"default_left":[0,0,0,0,0,0,0,0,0,0,0,0,0,0,0],"id":62,"left_children":[1,3,5,7,9,11,13,-1,-1,-1,-1,-1,-1,-1,-1],"loss_changes":[2.0545009E2,4.7215363E1,1.25875336E2,2.9757463E1,9.034653E0,3.4611862E1,2.464096E1,0E0,0E0,0E0,0E0,0E0,0E0,0E0,0E0],"parents":[2147483647,0,0,1,1,2,2,3,3,4,4,5,5,6,6],"right_children":[2,4,6,8,10,12,14,-1,-1,-1,-1,-1,-1,-1,-1],"split_conditions":[2.2222222E-1,-3.75E-1,2.2222222E-1,1E-1,1E-1,1E-1,5E-1,-2.7485821E-2,1.2880722E-2,-2.9389275E-2,-1.8858297E-2,-2.9887294E-2,-2.751534E-3,1.1610342E-2,2.7233666E-2],"split_indices":[34,11,9,34,34,9,9,0,0,0,0,0,0,0,0],"split_type":[0,0,0,0,0,0,0,0,0,0,0,0,0,0,0],"sum_hessian":[3.2244092E3,1.3322909E3,1.8921182E3,2.2052342E2,1.1117675E3,8.252351E2,1.066883E3,5.134335E1,1.6918007E2,3.5957953E2,7.52188E2,1.3215552E2,6.9307965E2,6.1058795E2,4.5629507E2],"tree_param":{"num_deleted":"0","num_feature":"58","num_nodes":"15","size_leaf_vector":"1"}},{"base_weights":[-1.3921672E-1,-4.2503324E-1,4.7601858E-4,-2.9620549E-2,-3.2542658E-1,4.9890444E-2,-5.177457E-1,-1.785167E-2,4.1306075E-3,1.2548508E-4,2.0014038E-2,-3.3058872E-4,-2.6727492E-2],"categories":[],"categories_nodes":[],"categories_segments":[],"categories_sizes":[],"default_left":[0,0,0,0,0,0,0,0,0,0,0,0,0],"id":63,"left_children":[1,3,5,-1,7,9,11,-1,-1,-1,-1,-1,-1],"loss_changes":[1.2302007E2,1.4936249E1,5.351158E1,0E0,8.759567E0,3.1660679E1,1.5271416E0,0E0,0E0,0E0,0E0,0E0,0E0],"parents":[2147483647,0,0,1,1,2,2,4,4,5,5,6,6],"right_children":[2,4,6,-1,8,10,12,-1,-1,-1,-1,-1,-1],"split_conditions":[2E-1,1E-1,8.75E-1,-2.9620549E-2,3.6E-1,4.4444445E-1,1.3333334E-1,-1.785167E-2,4.1306075E-3,1.2548508E-4,2.0014038E-2,-3.3058872E-4,-2.6727492E-2],"split_indices":[10,10,37,0,45,10,22,0,0,0,0,0,0],"split_type":[0,0,0,0,0,0,0,0,0,0,0,0,0],"sum_hessian":[3.0711133E3,1.00152655E3,2.0695867E3,3.551918E2,6.463347E2,1.8976735E3,1.7191318E2,6.010289E2,4.530585E1,1.6805028E3,2.1717061E2,5.9155035E0,1.6599767E2],"tree_param":{"num_deleted":"0","num_feature":"58","num_nodes":"13","size_leaf_vector":"1"}},{"base_weights":[1.7308788E-1,-1.4547239E-1,3.5947785E-1,-2.8266785E-1,2.1083717E-1,-2.755855E-1,4.4416076E-1,-2.4033988E-2,-7.8762015E-3,-1.8419378E-2,1.4682933E-2,-1.7650941E-2,2.7665544E-2,1.6302558E-2,3.1733014E-2],"categories":[],"categories_nodes":[],"categories_segments":[],"categories_sizes":[],"default_left":[0,0,0,0,0,0,0,0,0,0,0,0,0,0,0],"id":64,"left_children":[1,3,5,7,9,11,13,-1,-1,-1,-1,-1,-1,-1,-1],"loss_changes":[2.1903947E2,6.7350586E1,1.2623978E2,2.3780212E1,1.956835E1,1.9904192E1,4.4166504E1,0E0,0E0,0E0,0E0,0E0,0E0,0E0,0E0],"parents":[2147483647,0,0,1,1,2,2,3,3,4,4,5,5,6,6],"right_children":[2,4,6,8,10,12,14,-1,-1,-1,-1,-1,-1,-1,-1],"split_conditions":[4.2857143E-1,7E-1,3E-1,2.857143E-1,1.6666667E-1,1E0,7.1428573E-1,-2.4033988E-2,-7.8762015E-3,-1.8419378E-2,1.4682933E-2,-1.7650941E-2,2.7665544E-2,1.6302558E-2,3.1733014E-2],"split_indices":[37,12,12,37,37,37,37,0,0,0,0,0,0,0,0],"split_type":[0,0,0,0,0,0,0,0,0,0,0,0,0,0,0],"sum_hessian":[3.6701897E3,1.3555706E3,2.3146191E3,9.8021124E2,3.753593E2,2.6967792E2,2.0449412E3,3.6859015E2,6.116211E2,4.264378E1,3.3271555E2,2.5188828E2,1.7789644E1,1.2790476E3,7.6589355E2],"tree_param":{"num_deleted":"0","num_feature":"58","num_nodes":"15","size_leaf_vector":"1"}},{"base_weights":[-6.517579E-2,-3.4966505E-1,1.3241208E-1,1.6428208E-1,-4.1509506E-1,2.6329032E-1,-2.5026673E-1,-2.4317725E-2,1.7073391E-2,-2.9299824E-2,-1.649846E-2,2.5252149E-2,6.9805407E-3,-1.608006E-2,4.7362708E-3],"categories":[],"categories_nodes":[],"categories_segments":[],"categories_sizes":[],"default_left":[0,0,0,0,0,0,0,0,0,0,0,0,0,0,0],"id":65,"left_children":[1,3,5,7,9,11,13,-1,-1,-1,-1,-1,-1,-1,-1],"loss_changes":[1.812512E2,4.5102783E1,9.608161E1,1.9684553E1,1.5154953E1,4.1889313E1,1.2379957E1,0E0,0E0,0E0,0E0,0E0,0E0,0E0,0E0],"parents":[2147483647,0,0,1,1,2,2,3,3,4,4,5,5,6,6],"right_children":[2,4,6,8,10,12,14,-1,-1,-1,-1,-1,-1,-1,-1],"split_conditions":[2.2222222E-1,-7.1428573E-1,6.666667E-1,1E-1,1E-1,-1E-1,5.555556E-1,-2.4317725E-2,1.7073391E-2,-2.9299824E-2,-1.649846E-2,2.5252149E-2,6.9805407E-3,-1.608006E-2,4.7362708E-3],"split_indices":[34,11,12,34,34,11,34,0,0,0,0,0,0,0,0],"split_type":[0,0,0,0,0,0,0,0,0,0,0,0,0,0,0],"sum_hessian":[3.2062068E3,1.3109661E3,1.8952406E3,1.4634334E2,1.1646227E3,1.4145698E3,4.8067075E2,2.7588366E1,1.1875498E2,3.6765942E2,7.9696326E2,4.683213E2,9.462486E2,3.9887326E2,8.17975E1],"tree_param":{"num_deleted":"0","num_feature":"58","num_nodes":"15","size_leaf_vector":"1"}},{"base_weights":[-1.4371425E-1,-4.3677306E-1,-8.743716E-3,-2.918535E-2,-3.348656E-1,4.843906E-2,-3.474798E-1,-1.8022701E-2,3.0425042E-3,-1.7804978E-3,1.23060895E-2,6.369515E-3,-1.872801E-2],"categories":[],"categories_nodes":[],"categories_segments":[],"categories_sizes":[],"default_left":[0,0,0,0,0,0,0,0,0,0,0,0,0],"id":66,"left_children":[1,3,5,-1,7,9,11,-1,-1,-1,-1,-1,-1],"loss_changes":[1.21625656E2,1.256546E1,4.115804E1,0E0,6.254715E0,3.0315338E1,4.4232903E0,0E0,0E0,0E0,0E0,0E0,0E0],"parents":[2147483647,0,0,1,1,2,2,4,4,5,5,6,6],"right_children":[2,4,6,-1,8,10,12,-1,-1,-1,-1,-1,-1],"split_conditions":[1.4285715E-1,1E-1,7.777778E-1,-2.918535E-2,3.846154E-1,4E-1,1.6666667E-1,-1.8022701E-2,3.0425042E-3,-1.7804978E-3,1.23060895E-2,6.369515E-3,-1.872801E-2],"split_indices":[35,35,12,0,15,35,37,0,0,0,0,0,0],"split_type":[0,0,0,0,0,0,0,0,0,0,0,0,0],"sum_hessian":[3.0658684E3,9.5970953E2,2.1061587E3,3.736661E2,5.860434E2,1.8092974E3,2.9686142E2,5.512863E2,3.4757103E1,1.2752825E3,5.340149E2,1.4017386E1,2.8284406E2],"tree_param":{"num_deleted":"0","num_feature":"58","num_nodes":"13","size_leaf_vector":"1"}},{"base_weights":[1.585826E-1,-2.4984007E-1,2.9699722E-1,-4.269156E-1,-7.389347E-3,-1.5025207E-1,4.0490776E-1,-2.6196925E-2,-1.3764262E-2,-1.9658603E-2,4.450687E-3,-1.4026187E-2,1.266954E-2,1.5518998E-2,3.1208996E-2],"categories":[],"categories_nodes":[],"categories_segments":[],"categories_sizes":[],"default_left":[0,0,0,0,0,0,0,0,0,0,0,0,0,0,0],"id":67,"left_children":[1,3,5,7,9,11,13,-1,-1,-1,-1,-1,-1,-1,-1],"loss_changes":[2.081571E2,4.007238E1,1.3308441E2,6.497078E0,1.5391944E1,2.9149773E1,4.395392E1,0E0,0E0,0E0,0E0,0E0,0E0,0E0,0E0],"parents":[2147483647,0,0,1,1,2,2,3,3,4,4,5,5,6,6],"right_children":[2,4,6,8,10,12,14,-1,-1,-1,-1,-1,-1,-1,-1],"split_conditions":[3.75E-1,6E-1,3.75E-1,2.857143E-1,2E-1,8E-1,7.1428573E-1,-2.6196925E-2,-1.3764262E-2,-1.9658603E-2,4.450687E-3,-1.4026187E-2,1.266954E-2,1.5518998E-2,3.1208996E-2],"split_indices":[37,12,12,37,37,37,12,0,0,0,0,0,0,0,0],"split_type":[0,0,0,0,0,0,0,0,0,0,0,0,0,0,0],"sum_hessian":[3.6590076E3,9.2412476E2,2.734883E3,5.2966907E2,3.944557E2,5.3083685E2,2.2040461E3,3.080226E2,2.2164644E2,7.270861E1,3.2174707E2,4.036221E2,1.2721478E2,1.5569869E3,6.470591E2],"tree_param":{"num_deleted":"0","num_feature":"58","num_nodes":"15","size_leaf_vector":"1"}},{"base_weights":[-6.0364895E-2,-3.1741044E-1,1.6842388E-1,-4.4555148E-1,-9.842558E-2,-3.485123E-1,3.0036888E-1,-2.6947156E-2,-1.4873129E-2,-2.8832441E-2,-2.2092418E-4,-2.8882125E-2,-6.9502355E-3,9.749228E-3,2.6279077E-2],"categories":[],"categories_nodes":[],"categories_segments":[],"categories_sizes":[],"default_left":[0,0,0,0,0,0,0,0,0,0,0,0,0,0,0],"id":68,"left_children":[1,3,5,7,9,11,13,-1,-1,-1,-1,-1,-1,-1,-1],"loss_changes":[1.867461E2,4.150058E1,1.1575748E2,1.1397522E1,2.5354845E1,1.5835888E1,3.0901764E1,0E0,0E0,0E0,0E0,0E0,0E0,0E0,0E0],"parents":[2147483647,0,0,1,1,2,2,3,3,4,4,5,5,6,6],"right_children":[2,4,6,8,10,12,14,-1,-1,-1,-1,-1,-1,-1,-1],"split_conditions":[2.2222222E-1,3.3333334E-1,1.25E-1,1.1111111E-1,1E-1,1E-1,4.4444445E-1,-2.6947156E-2,-1.4873129E-2,-2.8832441E-2,-2.2092418E-4,-2.8882125E-2,-6.9502355E-3,9.749228E-3,2.6279077E-2],"split_indices":[9,34,34,9,9,34,34,0,0,0,0,0,0,0,0],"split_type":[0,0,0,0,0,0,0,0,0,0,0,0,0,0,0],"sum_hessian":[3.1563704E3,1.4845717E3,1.6717986E3,9.3001715E2,5.545545E2,3.3660983E2,1.3351888E3,5.54151E2,3.7586615E2,8.2668884E1,4.7188562E2,1.5238304E2,1.8422678E2,9.2228125E2,4.1290753E2],"tree_param":{"num_deleted":"0","num_feature":"58","num_nodes":"15","size_leaf_vector":"1"}},{"base_weights":[-1.3133547E-1,-2.7944025E-1,2.8248819E-2,-4.9989247E-1,-2.0974627E-1,8.542117E-2,-3.341633E-1,-2.582095E-2,-1.0464701E-2,-1.2133341E-2,8.97101E-3,2.5120735E-2,2.38094E-3,9.882639E-3,-1.8254014E-2],"categories":[],"categories_nodes":[],"categories_segments":[],"categories_sizes":[],"default_left":[0,0,0,0,0,0,0,0,0,0,0,0,0,0,0],"id":69,"left_children":[1,3,5,7,9,11,13,-1,-1,-1,-1,-1,-1,-1,-1],"loss_changes":[7.221942E1,2.3288078E1,3.0915094E1,7.117157E-1,1.6074902E1,2.0013569E1,4.0669746E0,0E0,0E0,0E0,0E0,0E0,0E0,0E0,0E0],"parents":[2147483647,0,0,1,1,2,2,3,3,4,4,5,5,6,6],"right_children":[2,4,6,8,10,12,14,-1,-1,-1,-1,-1,-1,-1,-1],"split_conditions":[2.1052632E-1,7.692308E-2,7.777778E-1,1.3333334E-1,3.6363637E-1,6.25E-2,1.764706E-1,-2.582095E-2,-1.0464701E-2,-1.2133341E-2,8.97101E-3,2.5120735E-2,2.38094E-3,9.882639E-3,-1.8254014E-2],"split_indices":[40,40,12,45,15,19,47,0,0,0,0,0,0,0,0],"split_type":[0,0,0,0,0,0,0,0,0,0,0,0,0,0,0],"sum_hessian":[3.042248E3,1.5739799E3,1.4682683E3,3.632477E2,1.210732E3,1.2748044E3,1.9346387E2,3.3634848E2,2.6899246E1,1.1197722E3,9.095986E1,9.574515E1,1.1790592E3,7.6660843E0,1.8579779E2],"tree_param":{"num_deleted":"0","num_feature":"58","num_nodes":"15","size_leaf_vector":"1"}},{"base_weights":[1.6375008E-1,-1.7134857E-1,3.237947E-1,-2.848788E-1,3.039972E-1,3.1384047E-2,4.7986147E-1,-2.4399161E-2,-7.818591E-3,-1.33700315E-2,2.2555647E-2,-2.2606617E-2,5.3587807E-3,2.0713026E-2,3.3464547E-2],"categories":[],"categories_nodes":[],"categories_segments":[],"categories_sizes":[],"default_left":[0,0,0,0,0,0,0,0,0,0,0,0,0,0,0],"id":70,"left_children":[1,3,5,7,9,11,13,-1,-1,-1,-1,-1,-1,-1,-1],"loss_changes":[1.9449756E2,6.429881E1,1.1169495E2,2.4135895E1,2.0662209E1,3.2131516E1,1.7076233E1,0E0,0E0,0E0,0E0,0E0,0E0,0E0,0E0],"parents":[2147483647,0,0,1,1,2,2,3,3,4,4,5,5,6,6],"right_children":[2,4,6,8,10,12,14,-1,-1,-1,-1,-1,-1,-1,-1],"split_conditions":[5E-1,7.1428573E-1,4.4444445E-1,2.5E-1,2E-1,2E-1,8.333333E-1,-2.4399161E-2,-7.818591E-3,-1.33700315E-2,2.2555647E-2,-2.2606617E-2,5.3587807E-3,2.0713026E-2,3.3464547E-2],"split_indices":[12,37,37,12,12,37,37,0,0,0,0,0,0,0,0],"split_type":[0,0,0,0,0,0,0,0,0,0,0,0,0,0,0],"sum_hessian":[3.6062607E3,1.1654192E3,2.4408413E3,9.439709E2,2.2144838E2,8.535743E2,1.5872671E3,3.5496988E2,5.89001E2,4.366751E1,1.7778087E2,1.08938774E2,7.446355E2,1.2026489E3,3.8461826E2],"tree_param":{"num_deleted":"0","num_feature":"58","num_nodes":"15","size_leaf_vector":"1"}},{"base_weights":[-5.6475557E-2,-2.3360394E-1,2.6426074E-1,-4.427136E-1,-7.270863E-2,-5.025035E-1,3.248635E-1,-2.7085835E-2,-1.7157892E-2,-1.72215E-2,4.692487E-3,-2.638034E-2,-2.760397E-3,1.0206658E-2,2.6335333E-2],"categories":[],"categories_nodes":[],"categories_segments":[],"categories_sizes":[],"default_left":[0,0,0,0,0,0,0,0,0,0,0,0,0,0,0],"id":71,"left_children":[1,3,5,7,9,11,13,-1,-1,-1,-1,-1,-1,-1,-1],"loss_changes":[1.7958524E2,6.813665E1,5.3930374E1,6.842575E0,5.290829E1,6.784611E-1,2.4489815E1,0E0,0E0,0E0,0E0,0E0,0E0,0E0,0E0],"parents":[2147483647,0,0,1,1,2,2,3,3,4,4,5,5,6,6],"right_children":[2,4,6,8,10,12,14,-1,-1,-1,-1,-1,-1,-1,-1],"split_conditions":[3.3333334E-1,-5E-1,3.448276E-2,1.3333334E-1,1.1111111E-1,2.631579E-2,2E-1,-2.7085835E-2,-1.7157892E-2,-1.72215E-2,4.692487E-3,-2.638034E-2,-2.760397E-3,1.0206658E-2,2.6335333E-2],"split_indices":[9,36,44,44,9,49,36,0,0,0,0,0,0,0,0],"split_type":[0,0,0,0,0,0,0,0,0,0,0,0,0,0,0],"sum_hessian":[3.1402058E3,2.0247455E3,1.1154602E3,8.728366E2,1.1519088E3,7.6363884E1,1.0390963E3,4.1536456E2,4.5747208E2,4.336987E2,7.1821014E2,7.060584E1,5.7580457E0,6.627769E2,3.7631946E2],"tree_param":{"num_deleted":"0","num_feature":"58","num_nodes":"15","size_leaf_vector":"1"}},{"base_weights":[-1.224355E-1,-4.1783744E-1,8.078471E-3,-2.8813934E-2,-3.094707E-1,-3.350005E-1,1.2991093E-1,-2.1035364E-2,-4.3048984E-3,-2.8867258E-2,-1.0573297E-2,-6.337428E-4,1.1319953E-2],"categories":[],"categories_nodes":[],"categories_segments":[],"categories_sizes":[],"default_left":[0,0,0,0,0,0,0,0,0,0,0,0,0],"id":72,"left_children":[1,3,5,-1,7,9,11,-1,-1,-1,-1,-1,-1],"loss_changes":[1.1697079E2,1.4177841E1,8.877347E1,0E0,1.389119E1,1.5443607E1,2.1584675E1,0E0,0E0,0E0,0E0,0E0,0E0],"parents":[2147483647,0,0,1,1,2,2,4,4,5,5,6,6],"right_children":[2,4,6,-1,8,10,12,-1,-1,-1,-1,-1,-1],"split_conditions":[1.4285715E-1,1E-1,1.4285715E-1,-2.8813934E-2,2.5E-1,1E-1,3E-1,-2.1035364E-2,-4.3048984E-3,-2.8867258E-2,-1.0573297E-2,-6.337428E-4,1.1319953E-2],"split_indices":[35,35,10,0,10,10,10,0,0,0,0,0,0],"split_type":[0,0,0,0,0,0,0,0,0,0,0,0,0],"sum_hessian":[3.0230647E3,9.196157E2,2.103449E3,3.5597363E2,5.636421E2,5.466347E2,1.5568143E3,3.7036908E2,1.9327303E2,1.7216106E2,3.7447363E2,6.318223E2,9.24992E2],"tree_param":{"num_deleted":"0","num_feature":"58","num_nodes":"13","size_leaf_vector":"1"}},{"base_weights":[1.6664019E-1,-5.8544744E-2,3.8236082E-1,-2.3585649E-1,2.0426162E-1,5.7004265E-2,4.6915302E-1,-2.5382552E-2,-7.1889856E-3,-2.821735E-2,1.3922498E-2,-3.8353954E-3,1.6621586E-2,2.0331834E-2,3.447174E-2],"categories":[],"categories_nodes":[],"categories_segments":[],"categories_sizes":[],"default_left":[0,0,0,0,0,0,0,0,0,0,0,0,0,0,0],"id":73,"left_children":[1,3,5,7,9,11,13,-1,-1,-1,-1,-1,-1,-1,-1],"loss_changes":[1.7404553E2,8.246751E1,5.1376892E1,2.567818E1,4.2294937E1,1.4857833E1,1.7059448E1,0E0,0E0,0E0,0E0,0E0,0E0,0E0,0E0],"parents":[2147483647,0,0,1,1,2,2,3,3,4,4,5,5,6,6],"right_children":[2,4,6,8,10,12,14,-1,-1,-1,-1,-1,-1,-1,-1],"split_conditions":[6E-1,5.555556E-1,4E-1,2.5E-1,1E-1,8E-1,8.888889E-1,-2.5382552E-2,-7.1889856E-3,-2.821735E-2,1.3922498E-2,-3.8353954E-3,1.6621586E-2,2.0331834E-2,3.447174E-2],"split_indices":[12,42,33,12,12,12,12,0,0,0,0,0,0,0,0],"split_type":[0,0,0,0,0,0,0,0,0,0,0,0,0,0,0],"sum_hessian":[3.5682686E3,1.7494016E3,1.818867E3,1.0452272E3,7.0417456E2,3.865144E2,1.4323525E3,2.5307137E2,7.9215576E2,5.6170055E1,6.4800446E2,2.6505344E2,1.21460945E2,1.1378799E3,2.944726E2],"tree_param":{"num_deleted":"0","num_feature":"58","num_nodes":"15","size_leaf_vector":"1"}},{"base_weights":[-4.9677387E-2,-3.020204E-1,1.6609365E-1,-3.9694872E-1,4.926889E-2,-3.4203616E-1,2.9243207E-1,-2.5072102E-2,-1.2041635E-2,-2.5658602E-2,7.199257E-3,-2.8552864E-2,-6.668348E-3,9.21783E-3,2.606735E-2],"categories":[],"categories_nodes":[],"categories_segments":[],"categories_sizes":[],"default_left":[0,0,0,0,0,0,0,0,0,0,0,0,0,0,0],"id":74,"left_children":[1,3,5,7,9,11,13,-1,-1,-1,-1,-1,-1,-1,-1],"loss_changes":[1.7032205E2,4.8254974E1,1.0934766E2,1.7318893E1,1.754587E1,1.5519489E1,3.261286E1,0E0,0E0,0E0,0E0,0E0,0E0,0E0,0E0],"parents":[2147483647,0,0,1,1,2,2,3,3,4,4,5,5,6,6],"right_children":[2,4,6,8,10,12,14,-1,-1,-1,-1,-1,-1,-1,-1],"split_conditions":[2.2222222E-1,5E-1,1.25E-1,1.1111111E-1,1E-1,1E-1,4.2857143E-1,-2.5072102E-2,-1.2041635E-2,-2.5658602E-2,7.199257E-3,-2.8552864E-2,-6.668348E-3,9.21783E-3,2.606735E-2],"split_indices":[9,34,34,9,9,34,34,0,0,0,0,0,0,0,0],"split_type":[0,0,0,0,0,0,0,0,0,0,0,0,0,0,0],"sum_hessian":[3.1089287E3,1.4311775E3,1.6777513E3,1.1256855E3,3.0549194E2,3.306824E2,1.3470688E3,6.610826E2,4.6460297E2,3.7662975E1,2.6782898E2,1.4937357E2,1.8130885E2,9.2731683E2,4.1975204E2],"tree_param":{"num_deleted":"0","num_feature":"58","num_nodes":"15","size_leaf_vector":"1"}},{"base_weights":[-1.21772565E-1,-4.040464E-1,5.2763075E-3,-2.8631587E-2,-2.947912E-1,-1.9301346E-1,9.316982E-2,-1.6380196E-2,1.11329025E-2,-2.1585062E-2,-5.7973918E-3,2.3496845E-3,1.9305756E-2],"categories":[],"categories_nodes":[],"categories_segments":[],"categories_sizes":[],"default_left":[0,0,0,0,0,0,0,0,0,0,0,0,0],"id":75,"left_children":[1,3,5,-1,7,9,11,-1,-1,-1,-1,-1,-1],"loss_changes":[1.0726367E2,1.5410202E1,3.6292595E1,0E0,1.06430435E1,1.1265299E1,1.9330433E1,0E0,0E0,0E0,0E0,0E0,0E0],"parents":[2147483647,0,0,1,1,2,2,4,4,5,5,6,6],"right_children":[2,4,6,-1,8,10,12,-1,-1,-1,-1,-1,-1],"split_conditions":[1.6666667E-1,1E-1,1.5384616E-1,-2.8631587E-2,3.7142858E-1,8.3333336E-2,4.2857143E-1,-1.6380196E-2,1.11329025E-2,-2.1585062E-2,-5.7973918E-3,2.3496845E-3,1.9305756E-2],"split_indices":[35,35,15,0,25,15,35,0,0,0,0,0,0],"split_type":[0,0,0,0,0,0,0,0,0,0,0,0,0],"sum_hessian":[2.98037E3,9.18304E2,2.0620662E3,3.4442685E2,5.7387714E2,6.2963513E2,1.432431E3,5.431063E2,3.0770847E1,1.4244301E2,4.871921E2,1.2474095E3,1.8502147E2],"tree_param":{"num_deleted":"0","num_feature":"58","num_nodes":"13","size_leaf_vector":"1"}},{"base_weights":[1.5211868E-1,-2.619814E-1,2.608431E-1,-3.4342712E-1,3.054274E-1,3.304731E-2,4.1058514E-1,-2.7508428E-2,-1.1023727E-2,2.572831E-2,-3.3066755E-3,-5.5287946E-3,1.3668864E-2,1.687194E-2,3.2238975E-2],"categories":[],"categories_nodes":[],"categories_segments":[],"categories_sizes":[],"default_left":[0,0,0,0,0,0,0,0,0,0,0,0,0,0,0],"id":76,"left_children":[1,3,5,7,9,11,13,-1,-1,-1,-1,-1,-1,-1,-1],"loss_changes":[1.631864E2,3.5966316E1,9.754947E1,1.570211E1,8.121519E0,3.9883884E1,2.7409393E1,0E0,0E0,0E0,0E0,0E0,0E0,0E0,0E0],"parents":[2147483647,0,0,1,1,2,2,3,3,4,4,5,5,6,6],"right_children":[2,4,6,8,10,12,14,-1,-1,-1,-1,-1,-1,-1,-1],"split_conditions":[3.75E-1,8.25E-1,4.6666667E-1,1.1111111E-1,1E-1,7E-1,8.5714287E-1,-2.7508428E-2,-1.1023727E-2,2.572831E-2,-3.3066755E-3,-5.5287946E-3,1.3668864E-2,1.687194E-2,3.2238975E-2],"split_indices":[12,52,42,12,34,12,52,0,0,0,0,0,0,0,0],"split_type":[0,0,0,0,0,0,0,0,0,0,0,0,0,0,0],"sum_hessian":[3.599351E3,7.455748E2,2.8537764E3,6.554405E2,9.013432E1,1.136729E3,1.7170474E3,2.3147505E2,4.2396542E2,5.520984E1,3.4924484E1,7.148986E2,4.218304E2,1.3269935E3,3.9005383E2],"tree_param":{"num_deleted":"0","num_feature":"58","num_nodes":"15","size_leaf_vector":"1"}},{"base_weights":[-5.1276416E-2,-3.3342412E-1,1.3471033E-1,4.984102E-2,-4.1091093E-1,-2.971396E-1,2.6046884E-1,-2.607789E-2,1.158288E-2,-2.4714885E-2,-1.3306978E-2,-2.8909013E-2,-8.09389E-3,5.5667325E-3,2.065291E-2],"categories":[],"categories_nodes":[],"categories_segments":[],"categories_sizes":[],"default_left":[0,0,0,0,0,0,0,0,0,0,0,0,0,0,0],"id":77,"left_children":[1,3,5,7,9,11,13,-1,-1,-1,-1,-1,-1,-1,-1],"loss_changes":[1.6129524E2,3.6455444E1,1.0149016E2,2.3461357E1,1.0954987E1,1.5141048E1,3.23453E1,0E0,0E0,0E0,0E0,0E0,0E0,0E0,0E0],"parents":[2147483647,0,0,1,1,2,2,3,3,4,4,5,5,6,6],"right_children":[2,4,6,8,10,12,14,-1,-1,-1,-1,-1,-1,-1,-1],"split_conditions":[2.2222222E-1,-3.75E-1,1.25E-1,1E-1,2.2222222E-1,1E-1,3.3333334E-1,-2.607789E-2,1.158288E-2,-2.4714885E-2,-1.3306978E-2,-2.8909013E-2,-8.09389E-3,5.5667325E-3,2.065291E-2],"split_indices":[34,11,9,34,9,9,9,0,0,0,0,0,0,0,0],"split_type":[0,0,0,0,0,0,0,0,0,0,0,0,0,0,0],"sum_hessian":[3.0551519E3,1.2106422E3,1.8445095E3,2.0419939E2,1.0064429E3,4.129223E2,1.4315872E3,4.4780582E1,1.594188E2,6.232908E2,3.8315207E2,1.2352421E2,2.893981E2,7.3273773E2,6.988495E2],"tree_param":{"num_deleted":"0","num_feature":"58","num_nodes":"15","size_leaf_vector":"1"}},{"base_weights":[-1.1128149E-1,-4.0148452E-1,-4.3789223E-2,-2.7393848E-2,-3.1575668E-1,-2.3512824E-1,5.498148E-2,-1.0669701E-2,-2.0652601E-2,-2.4815163E-2,-8.827692E-3,1.3617943E-3,2.363554E-2],"categories":[],"categories_nodes":[],"categories_segments":[],"categories_sizes":[],"default_left":[0,0,0,0,0,0,0,0,0,0,0,0,0],"id":78,"left_children":[1,3,5,-1,7,9,11,-1,-1,-1,-1,-1,-1],"loss_changes":[5.77296E1,5.2554245E0,4.5671177E1,0E0,2.8497849E0,1.1703934E1,1.838604E1,0E0,0E0,0E0,0E0,0E0,0E0],"parents":[2147483647,0,0,1,1,2,2,4,4,5,5,6,6],"right_children":[2,4,6,-1,8,10,12,-1,-1,-1,-1,-1,-1],"split_conditions":[1.0526316E-1,5E-2,1.8181819E-1,-2.7393848E-2,5.555556E-1,8.3333336E-2,5E-1,-1.0669701E-2,-2.0652601E-2,-2.4815163E-2,-8.827692E-3,1.3617943E-3,2.363554E-2],"split_indices":[40,40,15,0,8,30,20,0,0,0,0,0,0],"split_type":[0,0,0,0,0,0,0,0,0,0,0,0,0],"sum_hessian":[2.9464E3,5.466085E2,2.3997915E3,1.8196631E2,3.646422E2,8.123324E2,1.5874591E3,1.9325485E2,1.7138734E2,1.3512018E2,6.772122E2,1.4985757E3,8.8883446E1],"tree_param":{"num_deleted":"0","num_feature":"58","num_nodes":"13","size_leaf_vector":"1"}},{"base_weights":[1.4207914E-1,-1.4201666E-1,3.1625143E-1,-3.2044005E-1,7.3794976E-2,